-2.284775044917523976e-04
1.014436967273637125e-03
-1.941233006920209088e-03
-1.651428853862196746e-04
1.179205968293062495e-03
-1.828504355760486285e-03
7.859046933217002587e-06
1.322216402081529286e-03
-1.781234290915775656e-03
6.382983434781989334e-04
1.741626536055669930e-03
-1.197438461412633033e-03
1.428226627518739333e-03
2.120919163393742736e-03
-2.628353909085634401e-04
2.126932355499171548e-03
2.590013726384117303e-03
9.046064910106330233e-05
1.440059605000484216e-03
1.536117703494328367e-03
-9.881179499305575535e-04
-3.076808621449152550e-04
-1.819194250720511841e-04
-2.324106911565002563e-03
-1.468646767332075801e-03
-1.276087845634591399e-03
-3.006992526160624617e-03
-1.429223188386863049e-03
-1.022197836263875285e-03
-2.356417661264020944e-03
-9.384810650886892284e-04
-6.459669567211866366e-04
-1.435504559230663287e-03
-6.243663195529369596e-04
-3.832045455920801941e-04
-1.888422194296233026e-03
-3.817468623400203822e-04
1.044170774538238958e-05
-2.161976929487886313e-03
-1.535565898366098329e-03
-6.725444558315408789e-04
-3.057196217690293181e-03
-1.777657462809688988e-03
-8.053822713607706541e-04
-3.231166362162384877e-03
-1.425193728632632474e-03
-7.077632741088764725e-04
-2.912883693740648053e-03
-1.555166698267501950e-03
-8.115283874600301515e-04
-3.013039854947335491e-03
-1.130583783389802139e-03
-3.517234846783010948e-04
-2.584425469011031838e-03
-1.325385934553873196e-03
-5.980491524815138718e-04
-2.948732696166950391e-03
-1.140823043558412259e-04
5.589447434499043074e-04
-1.830602806286089727e-03
8.087331026085395683e-04
1.519220048975088253e-03
-7.755773624666977744e-04
6.423012588479706884e-04
1.412007926652568976e-03
-9.879896812613766198e-04
3.615347591138388033e-05
8.007779926245500680e-04
-1.533410621398206136e-03
-8.529284490562396518e-04
-2.133943881944942061e-04
-2.161399065893792638e-03
-8.417541811374639740e-04
-3.329835960631856461e-04
-1.743183653640305222e-03
7.400111509342150503e-04
1.183873338772158329e-03
2.612802442955116278e-04
1.743287239911111642e-03
2.087798715727190706e-03
1.462514629676604089e-03
1.618427599201929801e-03
1.808972497325583547e-03
1.235007592002351860e-03
8.478006746135068831e-04
1.038524535735928797e-03
3.341938060114294645e-04
3.572011957697278188e-04
5.472454027452659797e-04
-1.942046643993868655e-04
1.737274653651563346e-04
5.014836965798224111e-04
-4.420650445706520771e-04
1.920429588890756878e-04
7.108838701120201312e-04
-7.490950780715057182e-04
-7.613061656554652619e-04
2.725139673571336712e-05
-1.486454114924323864e-03
-1.800756949871889188e-03
-7.089665626683699061e-04
-2.464379325637645370e-03
-7.645192354131157214e-04
7.466424767426974008e-05
-1.658639054610785892e-03
2.939005454970863054e-05
7.477422502095104704e-04
-9.398997511779209803e-04
1.097941232369752194e-03
1.808790675929528285e-03
1.198997093471170134e-04
7.419884102442059681e-04
1.533005868477471407e-03
-2.195789970940781517e-04
7.565622061201722655e-04
1.566685113525872249e-03
-4.112179354819269655e-04
6.286200653435278793e-04
1.404479658454307715e-03
-4.441417355248932180e-04
2.113819254693056430e-04
1.121771296741723998e-03
-3.370327062347471913e-04
2.443239424763214446e-04
1.232663621766511052e-03
3.660426376380786391e-05
1.080609637999854723e-03
2.116695718176196932e-03
4.481772755725891232e-04
9.396642935375177459e-04
2.063868128250757623e-03
3.753757507601988039e-04
1.463402444288000202e-04
1.377616839598715982e-03
-1.104219596437154501e-04
5.853792567523737229e-04
1.609175461054594691e-03
1.609490191099986788e-04
2.862174675095183630e-04
1.318360050912782862e-03
-8.356499299145296784e-05
3.995104206737658432e-04
1.391124096366487149e-03
1.753445312022233830e-05
1.823490261107665964e-04
1.078491839559369289e-03
-2.818627941635021782e-04
-6.498694911577764183e-04
3.233915248611256656e-04
-1.087603250190460717e-03
-1.590680952470856875e-03
-5.155629039041974846e-04
-1.909403210845246482e-03
-1.650797150604943952e-03
-4.680600973835025353e-04
-2.085055663596889399e-03
-1.180122754784749270e-03
-5.650609253258660476e-05
-1.966722674721185348e-03
-9.826772775075065004e-04
3.699082881586510438e-05
-1.906252797088440164e-03
-5.171684308703777128e-04
3.034352774313346982e-04
-1.049369198944932659e-03
-1.065741955805299965e-03
-3.801819428196963357e-04
-1.667763140383198396e-03
-1.673575890248282056e-03
-1.129472587939061006e-03
-2.489563278139751007e-03
-7.169179867199026914e-04
-2.376240439145632026e-04
-1.525208469219689915e-03
-1.636981849730574233e-04
4.111949024611823698e-04
-8.368720579838421266e-04
-1.221888641355259558e-05
5.123369779077936509e-04
-7.441023364120574572e-04
2.817625438195507691e-04
7.593190126778543705e-04
-7.764220916497283076e-04
-1.985688214361349627e-03
-1.481944949640290245e-03
-3.295599574107349952e-03
-2.889398175501938990e-03
-2.401950257998729937e-03
-4.189706928898525445e-03
-2.708990668581277243e-03
-2.158122405501622463e-03
-3.991300054795201072e-03
-9.540495740823228031e-04
-2.129699137580238360e-04
-2.326132242122623886e-03
1.164427112597145038e-04
1.144480604316032348e-03
-1.621217533251228648e-03
-5.860011877761182788e-04
4.148577863797820136e-04
-2.369329958156212237e-03
-5.606667451055073791e-04
2.301628809424623797e-04
-2.189196795007069749e-03
-8.578748924161249453e-04
-2.448419562977939730e-04
-2.199078746466443055e-03
-2.137810748531256155e-04
1.054081211955683697e-04
-1.249367297041148548e-03
-4.913554962400962841e-04
-4.440610736671377545e-04
-1.295040546638345606e-03
2.009098956919234188e-04
1.362553689327569665e-05
-6.787616193367003621e-04
-1.280425608847008041e-04
-5.700834098718432627e-04
-9.537561227814906435e-04
-9.045998469200484862e-04
-1.389969123287942369e-03
-1.219617213682996741e-03
-7.795367630113803677e-04
-1.055732612804661163e-03
-5.467293939710190327e-04
-1.517334864028124287e-04
-2.784514553746617331e-04
2.573620787627706858e-04
9.828638029228552360e-05
7.786876415821360176e-05
6.792770628397762920e-04
-1.798849585840092300e-03
-1.655794784645236951e-03
-3.645702069023740188e-04
-2.802914210103387045e-03
-2.688511924565557560e-03
-1.240322447809843976e-03
-4.143099429741121942e-03
-3.992377868347035848e-03
-2.930375573294679344e-03
-3.453856551870338430e-03
-3.206239694060528719e-03
-2.124044928255627157e-03
-5.543504372764540902e-04
-4.159993078793556491e-04
1.038513951799391278e-03
6.057720595407245371e-04
7.578940768569970626e-04
2.554286051189589256e-03
-7.825037101775414883e-05
1.472314983610686131e-04
1.943434149908674410e-03
-6.063420833014496712e-04
-3.541441678306527798e-04
1.357554548971142382e-03
-1.840484964218342735e-04
9.793570115982551611e-05
1.721463327234329377e-03
-1.386266202597693977e-03
-1.018082669604178977e-03
1.174573943411392129e-03
-2.193316296679476834e-03
-1.722049790221506522e-03
6.454146415111809525e-04
-2.739534274725548800e-03
-2.200476198765802249e-03
2.015926894761736136e-04
-2.704468271070033843e-03
-2.241944527473323321e-03
3.199539148883798895e-04
-2.709613920772853402e-03
-2.086759705243749347e-03
8.572744275779546153e-05
-2.620910474238589971e-03
-1.899081978918444732e-03
-1.138862409198781366e-04
-2.729644835555931990e-03
-1.930065220412416306e-03
-2.133346355657836509e-04
-2.653498481786866273e-03
-1.702602775307177508e-03
3.102559156841902868e-05
-2.517407472121480517e-03
-1.457558178381316303e-03
3.812605794670426195e-04
-2.254555544248811050e-03
-1.278942932382885018e-03
7.320043105526264412e-04
-2.360372744224873039e-03
-1.186108107349353753e-03
5.189761965417728599e-04
-1.082757818748421872e-03
3.054678507920385129e-04
1.367194939464797801e-03
-1.224333572028716470e-03
1.511080769459060039e-04
6.834047423118912949e-04
-1.433282759142937230e-03
-1.212498171361031435e-04
2.529521935665565279e-04
1.199168108691424373e-03
2.268277364859904843e-03
-2.806382657776459772e-04
1.744138683724722079e-04
1.330413998543592989e-03
-1.448706255888184465e-03
-3.128482010993266548e-04
9.299371414987179455e-04
-1.952334766228280491e-03
1.227932742506406721e-04
1.060831151824379601e-03
-1.681482074605178574e-03
1.114257771577081965e-03
1.713114769756011492e-03
-7.565342457960646042e-04
8.216539011527068063e-04
1.234772811881175002e-03
-1.390095242186053593e-03
7.866867727350075829e-04
9.884419091971143566e-04
-1.616646875700056751e-03
4.239516091077252433e-04
6.557664325559634964e-04
-1.551098032325487659e-03
-1.764642413896092606e-03
-1.403849679079535425e-03
-2.809440500262451110e-03
-1.839324286393920118e-03
-1.276865817103091426e-03
-2.176278702259770974e-03
-1.526572819652993610e-03
-1.092691074114756017e-03
-1.901014132902383458e-03
-4.464301781554497498e-04
-1.323360698738917625e-04
-1.764275127750327939e-03
-6.639097869386101575e-04
-1.721994215500702915e-04
-2.341544447463223683e-03
-8.499494831798354603e-04
2.121608772096830135e-05
-2.266766663424711354e-03
-8.065288378985187301e-04
2.950303378319176794e-05
-2.335605707146751892e-03
-2.408522768653150207e-04
4.359925476772160335e-04
-1.928115792217286340e-03
-5.513766819287803855e-04
1.173688201588474173e-04
-2.297752501536055869e-03
-3.120616222346207953e-04
3.300793662240491828e-04
-2.050641567243955115e-03
-7.220136977559457690e-04
-2.408152680681495644e-04
-2.495817779839545371e-03
3.979823692265807458e-04
9.608199007283580199e-04
-1.278632142958802597e-03
1.081383821508549552e-03
1.727981185610338692e-03
-5.495456471169702772e-04
1.039883294939806862e-03
1.701974961262192653e-03
-6.841082804350025887e-04
1.056559062305903837e-04
7.259094119476380618e-04
-1.680934534059996778e-03
-7.765555789447399753e-04
-2.297184491320819878e-04
-2.305019639682368005e-03
-1.186961046355703830e-03
-5.493064571797270750e-04
-2.287488562068303206e-03
5.477993969631067859e-05
6.465609322804939229e-04
-6.670324855444184934e-04
1.644947003643373049e-03
2.133258272962728231e-03
1.337242585868631158e-03
2.754190122868765186e-03
3.069041848435419360e-03
2.632235194515613816e-03
1.778405277987651174e-03
2.011706898758082538e-03
1.629159880953840291e-03
-2.883377017821143009e-04
1.262758476341062082e-04
-3.649934960050412727e-04
-9.115456480074783392e-04
-3.601673554897264103e-04
-1.304780713413737983e-03
-5.584098711849024834e-04
5.410135005827171290e-05
-1.379619725127863034e-03
-1.176279310881381962e-03
-2.844966638775613447e-04
-1.967015353832165300e-03
-9.159521930811740298e-04
6.246337402602164957e-05
-1.595121787603007678e-03
-1.054211720192863022e-03
-2.565086930511522928e-04
-1.886371510409921978e-03
-2.946728561057254008e-05
6.158314170563941462e-04
-1.142068500443065016e-03
6.233942508713715162e-04
1.354547531642046358e-03
-4.829296424680530391e-04
-1.027349245498991869e-04
5.986561106059089081e-04
-1.421732688458728164e-03
-6.027524943361066813e-04
7.288664914227285980e-05
-2.013715498909501508e-03
-9.434942401322939489e-05
6.117497207047812007e-04
-1.205461429667262392e-03
-3.884115398631032422e-04
4.779060431000579207e-04
-9.583833598059145979e-04
-2.451023884435493249e-04
7.397519807464047418e-04
-5.165647286764286136e-04
2.121880829151648958e-04
1.213138306656924353e-03
-5.434506666177304265e-04
-3.152616886697070381e-04
7.561087641522966883e-04
-1.071059766135513611e-03
-1.042357924077643013e-03
1.515661028194984991e-04
-1.387379334054389618e-03
-1.042555439675030672e-03
8.992939756802808551e-05
-1.472295912725071071e-03
-6.473422401295939130e-04
4.641834924616505711e-04
-9.575796311914843480e-04
-6.634610586881266878e-04
3.410672636472627866e-04
-1.069420165150768674e-03
-7.791103737476323026e-04
1.688437801289106996e-04
-1.271754360499748266e-03
-6.900545927625575211e-04
2.811677436173615078e-04
-1.166381600246438029e-03
-7.192584221539662613e-04
2.966588760370635742e-04
-1.260609189857654763e-03
-6.945862637985657489e-04
4.673222918703949275e-04
-1.486742011782005374e-03
-1.174488814082900274e-03
-6.190984380225730237e-06
-2.031256101045585474e-03
-1.538058598731569448e-03
-3.876162191465574785e-04
-2.383135108669023634e-03
-1.208531103459088620e-03
-2.897117517219518351e-04
-1.684509586431861671e-03
-1.714037519680734279e-03
-1.012069225953713628e-03
-2.180261969811804392e-03
-2.400452625915164284e-03
-1.851013381926728619e-03
-3.166999642992234312e-03
-1.037799321671181068e-03
-6.251253090404999260e-04
-1.867968176725036964e-03
-6.324742951776914828e-04
-1.309767470676921467e-04
-1.250885250455690233e-03
-3.962905395292891809e-04
1.144434277351773032e-04
-1.119486618978288162e-03
-6.816648209437054960e-04
-1.706518994905566807e-04
-1.748111432280558680e-03
-2.738863399292144722e-03
-2.206694300838710210e-03
-3.956339829963870756e-03
-4.145842347306889254e-03
-3.705014799135327320e-03
-5.345845853782327066e-03
-3.607963059382841581e-03
-3.109210528123068553e-03
-4.632330176256761398e-03
-2.173369631954974110e-03
-1.533835667623935839e-03
-3.183922865678379295e-03
-8.052427583688101997e-04
-4.083791773466877921e-05
-1.917297836684537723e-03
-1.168437574295777635e-03
-3.215470963614706587e-04
-2.043057456798376501e-03
-9.378892875888202897e-04
-2.903985583345771739e-04
-1.553644155849679374e-03
-1.275230085464077899e-03
-7.900733642931474831e-04
-1.738008816852960794e-03
-1.624850312529518056e-03
-1.385878154044182468e-03
-2.078144252849204766e-03
-5.774511476391961003e-04
-6.463245175918942449e-04
-1.080538318233387586e-03
-1.085655372615956027e-05
-3.108684754365636052e-04
-5.980545464508062528e-04
-5.881271294697967833e-04
-1.082533525304218199e-03
-1.253594845629605204e-03
-1.105591275028235598e-03
-1.666247137942335980e-03
-1.251611959768862605e-03
-6.716902901313530393e-04
-9.822096788855080862e-04
-3.049267805594530791e-04
-5.667704957415794836e-04
-7.308148364085455999e-04
1.170569382207734639e-04
-1.004072242728275581e-03
-1.159750025073179184e-03
6.501003750246795777e-05
-2.573554374738060927e-03
-2.673016958857288121e-03
-8.182986203558717791e-04
-3.185933964450285861e-03
-3.226753284415155229e-03
-1.017487200238686605e-03
-3.498269979895302952e-03
-3.617563914574828485e-03
-1.537507744454948665e-03
-2.524831312627681072e-03
-2.535632382292723856e-03
-7.427455355938310634e-04
-1.094187733766322597e-03
-1.089078771802775170e-03
5.243338127498145887e-04
-5.724107639288615514e-04
-5.861944350769084794e-04
1.087923194228413055e-03
-9.188550962819150552e-04
-8.658048263535585718e-04
8.279384481939909947e-04
-7.828357050228141722e-04
-4.953373457590520227e-04
1.196916425931654655e-03
4.201269642090131785e-05
3.403495464877175363e-04
2.233970115058545643e-03
-1.287933403582352219e-03
-8.409829543763651469e-04
1.488293550947324996e-03
-1.712181312425502472e-03
-1.194863168750113060e-03
1.177371280500336256e-03
-2.260755276991047863e-03
-1.746189993996329895e-03
6.402425341398481967e-04
-2.001978835041958935e-03
-1.407850885987479332e-03
1.011943306947676001e-03
-2.520770991005596897e-03
-1.768527519345285950e-03
3.948105909659114024e-04
-3.071343621002408601e-03
-2.355709200710472215e-03
-5.586931358169403483e-04
-2.700152646027394708e-03
-1.905790006940978045e-03
-2.792909981953056188e-04
-2.317011187176137334e-03
-1.393749697211542956e-03
2.826646095075665047e-04
-1.776506893145125745e-03
-7.058618618052032740e-04
1.145688902505521013e-03
-2.172316160278378767e-03
-1.126489244596526242e-03
8.831506106908869379e-04
-3.178284270271807509e-03
-1.931180941569659486e-03
-1.200972018173984040e-04
-2.236530370608732100e-03
-8.682804880076344396e-04
6.812474919921422895e-04
-1.367021917127318699e-03
1.440676448246125643e-05
1.247396745378745713e-03
-1.246340485289163750e-03
-4.345143107140043921e-05
1.064040814278509892e-03
1.391384796561184918e-03
2.240994677348269980e-03
1.148499070112614509e-04
7.674587349289441413e-04
1.705541098006866600e-03
-6.083258357532447683e-04
-4.219296874201071434e-04
4.354600503976644842e-04
-1.901578144258106885e-03
-6.245956740334556020e-04
2.358723437085478503e-05
-2.174242676005530041e-03
5.675736018315878564e-04
9.644444776206382002e-04
-1.320964313604520816e-03
-1.388997238827475262e-04
1.985975164995935926e-04
-2.182491259642389998e-03
1.662529874596927696e-04
4.738922653889967576e-04
-2.005412933204822699e-03
1.932881523945574327e-04
7.360144473989110002e-04
-1.340792816248784648e-03
-1.431994147939232281e-03
-6.995273043424082892e-04
-1.820551927567326663e-03
-1.905034475435978241e-03
-1.179575762801875465e-03
-1.825807729069731274e-03
-1.250781783035252595e-03
-6.547024718037310195e-04
-1.585388329810586035e-03
-6.819398350713120173e-04
-3.407955261053488127e-04
-2.200121175391142776e-03
-5.116228630490660123e-04
-1.097407965202889515e-04
-2.406260075482103983e-03
-9.757345080863172608e-05
5.722182671960201810e-04
-1.800567105828120669e-03
-2.112313881396727299e-04
4.086884897141491025e-04
-2.089346052023459497e-03
2.130081781468642758e-04
6.178705339206734797e-04
-1.756102292636047609e-03
-1.485609803496074565e-04
2.178351950982152429e-04
-2.254019818286706524e-03
-9.145376011088976454e-05
2.834752469946072678e-04
-2.132685481934782062e-03
6.273076060048342209e-04
8.613110937284368168e-04
-1.414771841003518559e-03
8.655902095593757777e-04
1.222891553911757863e-03
-9.687072315047362461e-04
1.139037077585307181e-03
1.541914813690554737e-03
-6.358760965137871509e-04
-1.401193174336827377e-04
3.306129818401508337e-04
-2.079833678155944710e-03
-6.387413282138474464e-04
-2.612503247143244741e-04
-2.457652025294649895e-03
-2.012853705195380872e-04
2.833599179403123122e-04
-1.714735531113283345e-03
-7.831027780636778154e-05
5.263224326275960400e-04
-1.342861220093692501e-03
6.179254352113931455e-04
1.246261964093073847e-03
-4.138620549537624905e-04
1.614758697391707526e-03
2.203212128654272964e-03
9.924449071488233853e-04
2.368489382954583940e-03
2.846694466151833153e-03
2.324041875698490498e-03
1.552150235833033411e-03
1.889250604401803433e-03
1.681884783250181753e-03
-2.206028004700470984e-04
2.813170365676901773e-04
3.932145086703667665e-05
-7.101522384981145139e-04
-1.689031100835143042e-04
-7.177944776490790407e-04
-6.223104850878896123e-04
-5.553005958321918258e-05
-1.160543571984872218e-03
-1.253731859624777076e-03
-4.340066551844884413e-04
-2.029008006149892775e-03
-7.375879260578518731e-04
9.517090568436727723e-05
-1.627477651576691694e-03
-1.075209893435680403e-03
-3.208022532150434114e-04
-1.956324828338297430e-03
-6.584476377081401391e-04
2.926720115279633365e-05
-1.660072189274346046e-03
-4.817333851890602580e-04
2.265676674127285457e-04
-1.663133196374389855e-03
-9.081344877308286006e-04
-2.550376263195915723e-04
-2.303645573922040099e-03
-4.492349827904120016e-04
1.499450668020046171e-04
-2.043537291403703469e-03
-3.021977784338294743e-04
2.830889325263135714e-04
-1.676259663243325534e-03
-5.096206545461640309e-04
2.585530825273741652e-04
-1.238648031357328805e-03
-1.200844963029851974e-04
7.884291379655860004e-04
-5.276396347884356776e-04
9.443522265380775770e-05
9.427059732111800006e-04
-7.362455274277735027e-04
-2.225018554476312189e-04
7.154279459796413334e-04
-1.294127641483762978e-03
-9.917367813799264804e-04
-8.905119683349467177e-06
-1.680769413497677648e-03
-8.688347229002090638e-04
1.912298639009497544e-04
-1.252191419414261072e-03
-6.667622985972336330e-04
3.947506341309372406e-04
-1.101891689870483680e-03
-1.174964832090293065e-03
-1.170179563686232462e-04
-1.587825373153493739e-03
-1.460965376252856395e-03
-4.118439131483128310e-04
-1.877157694931137115e-03
-1.296738563894086994e-03
-3.215513028042072167e-04
-1.891557509817575833e-03
-8.070539934285464153e-04
1.564969213555322336e-04
-1.718028337412864492e-03
-6.373975157621349823e-04
4.847936055465171365e-04
-1.635656853549295135e-03
-8.627095173763532632e-04
2.998369897155740292e-04
-1.791625068615178892e-03
-9.331420132938329174e-04
2.986356399034848581e-04
-1.657746700222065533e-03
-1.864815514511037643e-03
-9.013842412946922091e-04
-2.276087918751769096e-03
-2.170969342604969592e-03
-1.457283636777480544e-03
-2.665627762910282531e-03
-2.062200616125503625e-03
-1.540623641901307577e-03
-2.802740264533080082e-03
-2.178717952984978411e-03
-1.813080242156334381e-03
-2.991903836018720148e-03
-1.440736319154780481e-03
-1.077196102662182674e-03
-2.150883076917910978e-03
-3.834247224924845613e-04
7.828333233962982433e-05
-1.085858231629469386e-03
-9.979176431792341224e-04
-5.265272940621760264e-04
-2.066699514396722233e-03
-1.833879393359843461e-03
-1.355824226489388924e-03
-3.100560863263924355e-03
-3.725632244997825835e-03
-3.234695191852722182e-03
-4.957254720332461562e-03
-4.199557445621089104e-03
-3.703429347212834274e-03
-5.355626951842818589e-03
-3.462253136646928787e-03
-2.782557663873533576e-03
-4.374315106158877843e-03
-1.509240178630504936e-03
-8.394830980170379800e-04
-2.416076787363572852e-03
-5.104420124281433156e-04
1.953601051039332334e-04
-1.114175765443080682e-03
-3.659525950071301640e-04
1.362539622948297289e-04
-6.049099832761102103e-04
-1.115460129854312608e-03
-6.462785938006928828e-04
-1.285714158979438639e-03
-1.864792898279429671e-03
-1.626953444302603165e-03
-2.336865029152082260e-03
-2.388167799085341421e-04
-3.143421277537211829e-04
-7.891690614849144287e-04
-9.730615864318592901e-05
-4.295021445781937184e-04
-7.043931243316198590e-04
-2.556025382504544170e-04
-9.318805974121955075e-04
-1.189165987881586921e-03
-5.132029540323633466e-04
-1.169046290805025650e-03
-1.032757679658505507e-03
-9.709163788779219279e-04
-1.270962537267188684e-03
-6.292935872515488830e-04
-7.468976764447706959e-04
-8.936255512453488434e-04
-9.979264730369016411e-05
-1.327328435805038556e-03
-1.609635788285605079e-03
-4.200455257520473336e-04
-2.559313814260246595e-03
-2.907338637012429113e-03
-1.175897199988280026e-03
-2.523446546780728269e-03
-2.792888641854210721e-03
-5.134372635747643876e-04
-1.900118887464367738e-03
-2.047007822967041729e-03
2.970584442549669075e-04
-2.031738216596740490e-03
-2.216327279020778411e-03
-1.119031294154151137e-04
-2.290676465219100393e-03
-2.411712635900153164e-03
-5.691526860134415436e-04
-6.726851267042881352e-04
-8.719717516409703070e-04
9.429530887800956435e-04
5.202980451517371513e-04
4.819154060189034176e-04
2.268346107064550012e-03
9.329316829601767098e-04
1.314397744208596576e-03
3.049669646714216111e-03
9.422093410849765108e-04
1.590806631946404658e-03
3.654781921299893321e-03
-7.675229239929592679e-04
-7.232037025649020693e-05
2.348430130058490328e-03
-1.505652014622424701e-03
-8.574729644948629560e-04
1.460931807206214579e-03
-2.114770444221638832e-03
-1.665957853084820044e-03
8.061561178088796605e-04
-2.032743541600466781e-03
-1.364458641352515400e-03
8.861057197605048735e-04
-1.151825901348174468e-03
-3.016942501961071338e-04
1.485505102917630393e-03
-1.670139420447017001e-03
-8.508809656140738737e-04
7.152308556414109899e-04
-2.075087203255096546e-03
-1.239665556721925325e-03
2.606418826312096432e-04
-2.614284887431721563e-03
-1.670055710460640556e-03
-1.433880582501780270e-04
-2.065945215297222779e-03
-1.039902384807732654e-03
6.876254088568492864e-04
-2.229931310162942739e-03
-1.151152224171169379e-03
8.248512210735805920e-04
-2.397586769591836600e-03
-1.228406043433862872e-03
7.629348300391219050e-04
-1.965234790312698262e-03
-7.353516037330119076e-04
1.312160853086296415e-03
-1.117760129702416970e-03
7.788070266736008137e-05
2.023412071391250591e-03
-1.658457763458250946e-03
-4.596379078013221146e-04
1.192385767737910588e-03
8.197985862262458781e-04
1.342447858809894161e-03
-2.418008305712004893e-04
1.161444121429561476e-03
1.699311305204659946e-03
-6.504852085909124094e-05
1.077541642610338642e-03
1.648412401089259386e-03
-2.304709827009739879e-04
6.457370412377416973e-04
9.682143724675766486e-04
-6.799335930419933040e-04
2.197985305214710178e-04
2.955018491994265868e-04
-1.258326780820183616e-03
5.367209480992504462e-04
5.759281736606171017e-04
-1.065287198190691554e-03
7.315437805502258799e-04
7.247900220370258545e-04
-8.852838748570166384e-04
-2.077202224468099379e-04
8.887012983356857329e-05
-1.204791808700136566e-03
-8.484062989407057482e-04
-3.594168883141149093e-04
-9.058983384352852549e-04
-1.242445760740901704e-03
-7.646125816347931889e-04
-1.210431215078986182e-03
-8.072617703541590251e-04
-4.693730082403466445e-04
-1.240560362169308792e-03
-1.227433620728188301e-04
1.694291829972030235e-04
-1.721486166093689736e-03
-5.350703584352030525e-05
2.416836756517551355e-04
-2.211084795929060820e-03
-4.252631462728595447e-04
5.203314450544873254e-05
-2.530568942844587093e-03
-4.393373383430750046e-04
-5.911138690854115233e-05
-2.507858963467848000e-03
2.769419946168393595e-04
5.363730543296621163e-04
-1.783134797836927838e-03
5.295794674019372152e-04
6.984628687454852262e-04
-1.597758429468642844e-03
-3.445989784559997450e-05
1.382244916028100787e-04
-2.204064424442633754e-03
6.931121665152984715e-04
8.222421335204178590e-04
-1.457016182321167926e-03
1.281315896465567896e-03
1.536971102810509495e-03
-4.868701837862803895e-04
8.336278759250763740e-04
9.970324341889514122e-04
-9.169823815954292971e-04
-5.031771779210050203e-04
-2.868624626045245441e-04
-2.192806417105206112e-03
-3.370277497994964954e-05
2.490423376182078507e-04
-1.636469461096046532e-03
3.549350167517857386e-04
6.445283676571462702e-04
-9.731405561990626608e-04
1.282621039709196825e-04
4.782970803517228118e-04
-9.386842666583640775e-04
4.522803552850957224e-04
1.022988641229516816e-03
-3.469267372890039972e-04
1.544752932226376319e-03
2.205335004330531701e-03
1.057588376344547904e-03
1.990534656815215464e-03
2.503427628462170235e-03
1.780231649862802634e-03
1.152682478119785442e-03
1.651996500977289577e-03
1.304657875615648863e-03
2.643781678251201292e-04
9.249491859913331173e-04
7.652868129975132824e-04
1.312515200475430953e-04
7.523646540949213962e-04
6.757992291359065772e-04
1.766399147750577871e-04
7.928072638343219847e-04
2.498398222248681246e-04
-4.056232233858892431e-04
3.670824163425240078e-04
-8.887863788794344699e-04
-1.052878408965219042e-03
-2.153963473190085643e-04
-1.790877416428219128e-03
-1.067366334671764191e-03
-3.342997110103462810e-04
-1.888486840362982311e-03
-5.135409594796133204e-04
2.057021065663288848e-04
-1.514435046236505683e-03
-4.007592668502282644e-04
3.002055757913033116e-04
-1.599112470218896779e-03
-9.172141448214338882e-04
-2.656535410410919458e-04
-2.289676518497428190e-03
-4.911231712569831976e-04
1.082046789924881529e-04
-1.996416191043495682e-03
-8.607223135591471428e-04
-2.303167169841484254e-04
-2.039674815463140591e-03
-5.822095028736951408e-04
1.291577335112393480e-04
-1.393506955682194707e-03
3.577878258588190839e-04
1.180466812223829234e-03
-2.810432349072458625e-04
3.763073541505450857e-04
1.226843704311567432e-03
-4.274371622711715642e-04
-7.989301854504254116e-04
1.343209410108730931e-04
-1.861352276385886328e-03
-9.363345760353293913e-04
-2.127720424886226549e-05
-1.843219307165048929e-03
-1.085332096761255959e-03
-1.099354098606908342e-04
-1.490129643544696025e-03
-7.513191125031632193e-04
3.977148377315923417e-04
-9.762407023721207146e-04
-1.404612291060492943e-03
-2.330169592500186437e-04
-1.603126945073984422e-03
-1.608906874387275050e-03
-5.459526627521920413e-04
-2.036901627181806739e-03
-1.890423089676397184e-03
-8.407725942071286439e-04
-2.588761634624718415e-03
-8.607312095737510360e-04
1.882416110453599971e-04
-1.910398146681349576e-03
-4.207108219139786380e-04
7.485234750105306542e-04
-1.404131165578934764e-03
-6.137605197482496255e-04
6.570287326310259805e-04
-1.476899985857069424e-03
-1.040507400931506505e-03
1.558093451264609371e-04
-1.621356197204284382e-03
-1.787031699625084551e-03
-8.931160608910020983e-04
-2.159259863419367431e-03
-1.402853102637595601e-03
-8.199020243592008116e-04
-1.982859326006311800e-03
-1.904179356629065456e-03
-1.536667559880500926e-03
-2.767733698467532595e-03
-2.167325532560545470e-03
-1.939775954696497991e-03
-3.077505181780788249e-03
-5.607473270275438286e-04
-3.106498035234927244e-04
-1.351316058456837870e-03
-1.173128801809697908e-03
-7.922442306643412511e-04
-1.871597017100415069e-03
-1.772121070990201547e-03
-1.378470663891338517e-03
-2.949372420244716214e-03
-1.806730567331653542e-03
-1.424519065425492240e-03
-3.228126906682173784e-03
-3.774812740451992474e-03
-3.331823885117635685e-03
-5.127678337327910493e-03
-4.574724687339718626e-03
-4.168165512491875911e-03
-5.885543886502251840e-03
-3.968421857758972979e-03
-3.562781059679005768e-03
-5.111850494146558989e-03
-2.051472966997456432e-03
-1.604373178082080850e-03
-3.055501615925906595e-03
-3.292166838633050688e-05
4.203747505006713721e-04
-9.178030455878920984e-04
-8.517938037756491148e-04
-4.879556664405669433e-04
-1.323648996373488242e-03
-1.754679284584415369e-03
-1.431763206825345221e-03
-1.898159820406474917e-03
-2.301957818936782411e-03
-2.055249828663850524e-03
-2.461019906073473248e-03
-1.917619410312163116e-03
-2.061807866618317608e-03
-2.262436465359186997e-03
4.878967579789988268e-05
-3.988540023545211191e-04
-5.764042467202616041e-04
3.330978699812096573e-04
-4.833366405686737965e-04
-6.331698941334056030e-04
3.498909470573269287e-04
-3.525325180104404966e-04
-3.581598044897950773e-04
-8.088833548470445844e-04
-1.309425508460111600e-03
-6.677065697172196966e-04
-1.301391573445143200e-03
-1.643700090548854765e-03
-7.955040803406995256e-04
-8.672038871825542934e-04
-1.235580058535004763e-03
-9.808631159849590271e-05
-1.003689076043142803e-03
-1.523332485213992320e-03
-2.015876414213111181e-04
-2.629495675676768365e-03
-3.110897305025914737e-03
-1.280091508486440582e-03
-3.510572741067258772e-03
-3.887938526853994530e-03
-1.589204116288276195e-03
-3.191584924583381125e-03
-3.395034752214989848e-03
-1.217954350475983563e-03
-1.642624651036659125e-03
-1.899307823807392130e-03
9.486059577696639956e-05
3.360330236609977619e-04
-4.211022586051190841e-05
1.833039536241881477e-03
9.696111377139265226e-04
8.682433562588590982e-04
2.566184882101320806e-03
1.245669629179696871e-03
1.573818499435060414e-03
3.262416838401483842e-03
4.508171655387795736e-04
1.323890561085420189e-03
3.429312998050234370e-03
-1.693531514613036285e-03
-6.471089915482336821e-04
1.666722496530976746e-03
-1.824067433594059708e-03
-9.505270644721340676e-04
1.349644455405621521e-03
-1.063092811929974282e-03
-5.514615793028546532e-04
1.741262643979039947e-03
-9.769244874078450956e-04
-3.514610046390942454e-04
1.587461426401012886e-03
2.789295792687709633e-05
8.214698400137668971e-04
2.231736345707038306e-03
-6.352488523200790303e-04
1.276219755847218568e-04
1.454303660377097513e-03
-5.363614806755110688e-04
2.269968707913404358e-04
1.569542901230718901e-03
-1.466210746408612561e-03
-6.081275083198259832e-04
7.944222964834303947e-04
-2.440455490374316035e-03
-1.491230011042125620e-03
2.251574454380906275e-04
-2.149158168830098744e-03
-1.122508250094409517e-03
7.530720437717821269e-04
-1.243442392840307794e-03
-9.186067876240820913e-05
1.765376841724131942e-03
-6.955788209828945960e-04
4.545159365502153179e-04
2.396567229042883673e-03
-5.894612396746271498e-04
5.044137511750193190e-04
2.453006177858468601e-03
-1.239727621178805155e-03
-1.036682334777222199e-04
1.645797865655634473e-03
2.056291837451244820e-04
6.587454326865161422e-04
-9.508451452098022659e-04
1.386448739255882832e-03
1.728721450043672371e-03
-3.191963107109945289e-04
1.078159682605937895e-03
1.359438387475755614e-03
-5.466392167637091097e-04
-1.672715146438631477e-04
-5.949945500156239499e-05
-1.487214167032012944e-03
1.377986446473045969e-04
1.323012601008362744e-04
-1.353864525490677427e-03
1.366752118994314777e-03
1.317803214043020924e-03
-7.786418052000832325e-05
7.716777183639995973e-04
6.244818766892706310e-04
-4.335955327892138415e-04
-3.900237463494525395e-04
-3.572475832231154086e-04
-1.068502430996937178e-03
-1.124025765509374924e-03
-8.225212646542868697e-04
-1.173407953808357175e-03
-1.526718954683830296e-03
-1.196351034030085619e-03
-1.290301303357051059e-03
-9.680586173271573227e-04
-7.900034675888905180e-04
-9.856621140163161331e-04
-1.121920758674959870e-03
-1.025703839346499844e-03
-2.008587374705231732e-03
-7.917626976124757070e-04
-6.647993625302683809e-04
-2.593060025788471081e-03
-9.665648216413419294e-04
-7.270601012372205057e-04
-3.163979997985867480e-03
-9.267069556762784705e-04
-6.826223802954063018e-04
-3.093479314809986346e-03
-3.160399552204810024e-04
-1.198681428741713950e-04
-2.211335091503752528e-03
3.960731702637438462e-04
5.730693212690374672e-04
-1.633128263928391478e-03
-8.594870553599069857e-05
1.243191336519366454e-04
-2.289217198175973102e-03
-2.211882826551568051e-04
-1.335264088565732670e-04
-2.366501858319240790e-03
5.024898359002092458e-04
5.857414413384474244e-04
-1.187831088352308195e-03
-1.692066112004324277e-05
9.831484353973764777e-05
-1.416774819600146850e-03
-4.079268506523090333e-04
-3.648639632856177147e-04
-1.908119732954941970e-03
1.661782166415633113e-04
2.304001756482785450e-04
-1.262928040434036945e-03
-9.429620973429207406e-05
5.670984360302848599e-05
-1.215614105633715161e-03
-3.589575039764700661e-04
-4.755705123620671633e-05
-1.182264101166904859e-03
-4.778082056513634278e-04
-1.274435156173464804e-05
-1.150737522239737333e-03
5.022184011126616622e-04
1.050696740231916830e-03
-2.659681841085900460e-05
6.669209552192921107e-04
1.207024126717843367e-03
3.804530845592072360e-04
1.440542278709235980e-03
2.063774122106835050e-03
1.443311748674957389e-03
3.817926229136802655e-04
1.121074222611440031e-03
8.557562831302138783e-04
5.666074802786637407e-04
1.311446989763514169e-03
1.431003617476910668e-03
-1.199492586505270214e-04
6.097169458833876215e-04
4.796083988801204141e-04
2.405379470168930031e-05
8.364973640683228632e-04
2.203409943768334185e-04
-5.477202985914847834e-04
3.195649388205888610e-04
-6.701558382818282537e-04
-9.704152255207662038e-04
-1.948117127055781772e-04
-1.483862702622765813e-03
-3.765925922576468716e-04
2.307453910767107022e-04
-1.230690359388031483e-03
-5.020710249187357874e-04
1.351068828078053638e-04
-1.665049211151643739e-03
-1.298239683682038794e-03
-5.949674400545014756e-04
-2.571477247690889031e-03
-1.065787621555123023e-03
-3.672333316628011851e-04
-2.227623066242024642e-03
-1.212349437960026470e-03
-5.737785275407153700e-04
-2.143204158375611786e-03
-1.110173207421686270e-03
-4.931092517106125698e-04
-1.959868861599740799e-03
-1.092650425491828968e-03
-2.460884490392413839e-04
-1.869431325379337797e-03
-7.767122143293595307e-04
1.095071464447902615e-04
-1.679887831250483077e-03
-1.146847446393164287e-03
-1.954824026246923714e-04
-2.075644816967983902e-03
-1.160101655408576774e-03
-2.234628822977356678e-04
-2.268632403531174214e-03
-1.467499007335059790e-03
-4.503162462512054921e-04
-2.194190695138770707e-03
-1.732907848856951637e-03
-6.141688787969744323e-04
-2.066824998854887348e-03
-1.821938702899139227e-03
-6.962223577854508190e-04
-2.172158062162692083e-03
-5.656943662745329967e-04
4.316884428523800428e-04
-1.320884094849924173e-03
-2.063932294825866071e-04
8.075865957879793926e-04
-1.147680643242879632e-03
-2.466067831592086705e-04
8.872236631147970400e-04
-1.241652767977675801e-03
1.250896779662713268e-05
1.248207117386560851e-03
-8.513467188662075585e-04
-6.442096023478622062e-04
7.193007446619106675e-04
-1.202420797703132550e-03
-1.212884112243031286e-03
-8.623623716141276074e-05
-1.618105403546470219e-03
-1.741705119490904010e-03
-9.551064793832518985e-04
-2.185127547908160932e-03
-9.453847265403950801e-04
-4.646473780978105459e-04
-1.542155974153714641e-03
-1.172369898008421459e-03
-8.546090672980909174e-04
-2.001153700665753588e-03
-1.746818862370716095e-03
-1.613770175390887626e-03
-2.685400791246637768e-03
-1.848281999427835859e-03
-1.532693662645996787e-03
-2.652220061497321830e-03
-1.850484933691498796e-03
-1.515776255477511254e-03
-2.609721588329696335e-03
-1.963306897432326101e-03
-1.683057002232464820e-03
-3.210474102454455997e-03
-2.054532339968034600e-03
-1.909596168642451082e-03
-3.601502266400543033e-03
-3.106452672071915912e-03
-2.936017752815924583e-03
-4.521007284641648423e-03
-3.600134495135978718e-03
-3.425815900943362038e-03
-4.995502464767209716e-03
-3.556753983787238910e-03
-3.296413527893742815e-03
-4.748492626021407446e-03
-2.466929056807246490e-03
-2.258717736857965633e-03
-3.605416237002910963e-03
-5.056361690027966291e-04
-3.273358991781237732e-04
-1.546154190723561181e-03
-5.420878004797698331e-04
-4.416721480189259421e-04
-1.341214694505310110e-03
-1.685557400687339065e-03
-1.479303617877508878e-03
-1.982049328210969304e-03
-1.108764999127958466e-03
-9.661575247158726799e-04
-1.304830538001962303e-03
-6.178321816918109187e-04
-8.777531316494486093e-04
-1.017548768239181101e-03
4.867946811827984018e-04
-1.105138896267307254e-04
-2.028379305566545558e-04
6.603385663012204410e-04
-1.361363320988038324e-04
-3.393141126286905646e-04
1.036352140363245048e-03
2.075029953818086678e-04
1.388752108539908169e-04
1.021261143593030647e-04
-5.069021664285712752e-04
-3.028377612214546593e-04
4.295356719261296855e-04
-1.625238486547801058e-04
3.204619091992247717e-04
8.023895945469328769e-04
2.397033227681755684e-04
8.430444357025220631e-04
3.452362137304813513e-04
-2.981100424647040387e-04
5.248663880842737274e-04
-8.000152356588864514e-04
-1.550715326199989148e-03
2.078473076074778441e-05
-2.063919801807674072e-03
-2.592769928477100302e-03
-5.613197914975584773e-04
-1.173692667524784848e-03
-1.405720308153497354e-03
5.908124362328594269e-04
6.358164342544202772e-04
2.174479685714761498e-04
2.120469584360435301e-03
1.615648012378722090e-03
1.151029380045625857e-03
3.043729642417621496e-03
9.443925561813180762e-04
7.347374125269668602e-04
2.373871947636962011e-03
6.300494963470345568e-05
3.548524053630499947e-04
2.137386557908612338e-03
-1.789523626813390150e-03
-9.497324336217795489e-04
1.297035704980386769e-03
-2.710008051539253195e-03
-1.642237997284148876e-03
6.406258299462128016e-04
-1.937807557329132005e-03
-1.083437506374989711e-03
8.851847525574264375e-04
-6.153653238258920057e-05
4.429942493589267847e-04
2.198041427474809861e-03
-7.138148143189752132e-04
-9.262124571093374302e-05
1.469846126286003703e-03
-1.214551392850477104e-03
-5.474885168063851762e-04
8.176932447513808166e-04
-1.174080276895969567e-03
-4.184782538291170815e-04
6.478676139949473287e-04
-1.225471105884742059e-03
-4.497631910803527090e-04
6.503108552043697496e-04
-1.420145931739377320e-03
-6.205996702561067998e-04
7.725769336073904769e-04
-2.524864635256911672e-03
-1.606231182716879018e-03
-2.726196136306754046e-06
-1.836962538122852194e-03
-8.177914804951656865e-04
9.266957849410180576e-04
-1.290890182718970646e-03
-2.030388975478555403e-04
1.659204608112997302e-03
-1.542152152116037624e-03
-4.407796438420958241e-04
1.401456188967105344e-03
-1.074321471412068713e-03
6.060409151490363087e-05
1.848291581624337621e-03
-1.789215716106460621e-03
-6.306917759637674804e-04
1.105314948881817123e-03
2.488127060740172357e-04
4.375561019933383862e-04
-1.264286988566650947e-03
1.212787914242256446e-03
1.319429186151732701e-03
-8.954663981396402154e-04
5.982671055123587071e-04
6.768877885678215413e-04
-1.223870292780761823e-03
-7.260651372327177246e-04
-7.656498277661697100e-04
-2.031336962539845477e-03
3.101138815876355111e-04
1.989197060166332423e-04
-1.367757778536485107e-03
1.544720898908827009e-03
1.346787159207197453e-03
8.595860510255860115e-05
6.412161242104470575e-04
3.647837570426682254e-04
-4.133811713552049192e-04
-8.755007144194651859e-04
-9.719862740736296639e-04
-1.466553876835637732e-03
-3.491491046368372137e-04
-2.330885764294223980e-04
-7.610499873830872631e-04
-2.666891326442593128e-04
-7.659379401465029745e-05
-3.831567379022256530e-04
-1.761450270870193425e-04
-5.916381201588474472e-05
-1.409973547470136845e-04
-5.189776820559139194e-04
-4.547355833138270933e-04
-1.001634944735364753e-03
1.478613551858458223e-04
2.347319444891245101e-04
-1.026508444963058131e-03
3.840732740484785381e-04
5.842412355315289513e-04
-1.568037283283820220e-03
2.980782162299925307e-04
6.249402622523693874e-04
-1.892514920872575114e-03
-4.355665729421741425e-04
-1.004152121876623855e-04
-2.506085098759281045e-03
-4.384264518900827059e-04
-2.228133787628537458e-04
-2.349470362976752158e-03
-3.383250991103842306e-04
-1.774545484302220925e-04
-2.169563577477915534e-03
-7.847925959132892040e-05
7.724919987664804772e-05
-1.825357284347701959e-03
-4.560522038126065794e-04
-3.239423321653394738e-04
-1.940645837457160867e-03
-3.027519621218053777e-04
-2.148822694054684540e-04
-1.586667602680821420e-03
-2.034293555828038495e-04
-2.181097191841584561e-04
-1.587169386068353972e-03
-3.124282416048402037e-04
-2.460336620140754970e-04
-1.630492598776098461e-03
-7.247902510208376926e-04
-5.324992246148147835e-04
-1.714380386602070610e-03
-6.891136078535580562e-04
-3.189161892380088697e-04
-1.543181482541823579e-03
-5.604236933413435373e-04
-9.045588361502701386e-05
-1.368258235845227697e-03
-1.951583574262161783e-05
4.238344241014608128e-04
-7.685928162470896836e-04
-1.402678025038033414e-06
4.891539694647811147e-04
-5.048110707818557205e-04
7.689190192246872328e-04
1.346883802339101299e-03
4.708285987332758073e-04
1.247673500435173477e-03
1.973367712873922396e-03
1.587129263642398118e-03
1.050275266520283961e-03
1.909866375502551009e-03
1.814888856587462814e-03
1.867411408740050948e-03
2.670859634762007533e-03
2.626787757030664069e-03
1.371475097127607644e-03
2.173668962081660126e-03
1.970130664551200585e-03
7.745202481356550398e-04
1.628226583544845020e-03
1.065176153764626826e-03
8.560820441639589690e-06
8.287320212167374528e-04
-1.012505902545377190e-04
-1.581684219515345927e-04
6.648251272036150104e-04
-5.811358990939841443e-04
-6.820590187025056051e-05
7.751863707753335869e-04
-7.321538198884851561e-04
-1.080232397195164760e-03
-2.536802436067503289e-04
-2.157661932869970461e-03
-6.644284318720575407e-04
7.997737604476408735e-06
-1.438656798177813303e-03
-8.538140080096336950e-04
-2.603959804883510627e-04
-1.593404856611014414e-03
-1.902730365185952704e-03
-1.120481513290318447e-03
-2.642615589942512444e-03
-2.410229420856713038e-03
-1.590609829262699731e-03
-3.205739083688964597e-03
-2.039708537342246105e-03
-1.237724697414280131e-03
-2.967749717573706179e-03
-1.300890549004584274e-03
-4.990375411010514704e-04
-2.369342383958895903e-03
-3.785164638732674541e-04
4.219858290026171424e-04
-1.687739176453634206e-03
-6.376067831079897845e-04
2.486485464470591196e-04
-1.759564966098496044e-03
-1.825157834281627284e-03
-9.097064625267385152e-04
-2.742536767954361406e-03
-1.693654977572669465e-03
-7.061915106096311847e-04
-2.768529463029853650e-03
-3.888514590741931100e-04
4.770468142039425074e-04
-1.679820350439845383e-03
-5.770737921284591759e-04
2.413785293138735126e-04
-1.790537199615205473e-03
-1.462236983759278687e-03
-4.088361989830331081e-04
-2.431196924908557346e-03
-2.052375159821048702e-03
-6.719221774298750815e-04
-2.727319948590114194e-03
-1.726934440555867676e-03
-3.107849939798397183e-04
-2.071108561513134490e-03
-9.487595089434512673e-04
1.411229270245599346e-04
-1.125164326334322090e-03
-8.047100200104151304e-04
-1.415777234031773569e-04
-1.163897076418387135e-03
-8.274698611101554595e-04
-4.261356785698686015e-04
-1.435696220145865490e-03
-1.753799586577781686e-03
-1.360744386592356971e-03
-2.327235987597134695e-03
-2.504744169188316289e-03
-2.224442791542870397e-03
-3.240500780666112808e-03
-2.246020295571194304e-03
-1.941298006439030020e-03
-3.002617119899239368e-03
-1.906324578674782394e-03
-1.749907823647966869e-03
-2.827088748372861681e-03
-1.750581537327156913e-03
-1.791576010920256255e-03
-3.204900255772812762e-03
-1.066543471680691125e-03
-1.276906501947766949e-03
-2.824697587029858029e-03
-1.238879587629334320e-03
-1.414560670295405154e-03
-2.936411118300339025e-03
-2.045836096398358141e-03
-2.204714432614426033e-03
-3.601134518734377694e-03
-3.284306900991543817e-03
-3.371125581657810448e-03
-4.643740235374318494e-03
-2.959355705370963780e-03
-3.013098943837644837e-03
-4.258512425208269524e-03
-1.801232270677409790e-03
-1.884377202717475415e-03
-3.104672593211308361e-03
-1.094414257058402276e-03
-1.131012606644019340e-03
-2.187019232518026216e-03
-1.218794609660449118e-03
-1.333964104150024959e-03
-1.795017639651737924e-03
-6.788790881347862426e-05
-2.699149044320800690e-04
-4.890835852517148950e-04
5.465783216028301250e-04
3.488531558833520458e-05
-8.348012698859460080e-05
1.493804653565011841e-03
7.723847811746504480e-04
5.470788904479673099e-04
1.947221619172426720e-03
1.204130251096394415e-03
7.204674431128792059e-04
1.490245079569209145e-03
8.344683779021382867e-04
2.872271223530187549e-04
1.914225353390334007e-03
1.292719233938330629e-03
1.043252554208561576e-03
2.062796546697060873e-03
1.298431156230580837e-03
1.354451993520998767e-03
2.035242144489989892e-03
1.266925932014576752e-03
1.439359621325878849e-03
1.964830255255564824e-03
1.230600478137645675e-03
1.468127524144118793e-03
1.140819947548746445e-03
3.523445459786245476e-04
1.363987146590434118e-03
-1.135044759462959952e-03
-1.611882435645198546e-03
1.098785798431945035e-04
-3.305559491722148474e-05
-2.940584383222653473e-04
1.631410997463355640e-03
1.682983847738016812e-03
1.251429501031417393e-03
2.883922464981090658e-03
1.341150970051049841e-03
9.354337316462844106e-04
2.350771479374029818e-03
6.428357540793152875e-04
5.954867438481959265e-04
1.950960325481322297e-03
-5.586594989756076641e-04
-1.928144457055827664e-04
1.333760235827116105e-03
-2.798261399257820619e-03
-2.098832177441583690e-03
-3.282742413013209739e-04
-2.560399658254366041e-03
-1.784675308969543199e-03
4.119052018487984120e-05
-1.702837002434848777e-03
-1.032388444007431702e-03
6.362896646154546365e-04
-1.404222766102066226e-03
-9.390347076074750509e-04
5.492126018530887280e-04
-2.110087441107846937e-03
-1.449720393091630038e-03
5.029228562234847798e-05
-2.139740568786070111e-03
-1.337989304889538678e-03
-8.729137863231253012e-05
-2.146958490826587299e-03
-1.412706499469452461e-03
-2.485444577926865825e-04
-2.380199661856732124e-03
-1.655485861475647488e-03
-4.096995795372065496e-04
-2.185035915308997535e-03
-1.423079190580251938e-03
1.136293544498185280e-04
-2.744042718417195013e-03
-1.845422908426418498e-03
-1.494138933377419840e-04
-2.507728723938864885e-03
-1.512128814805179227e-03
3.113369094046828539e-04
-2.727378222811387316e-03
-1.657346862091649666e-03
5.058178639555589891e-04
-2.897057311288316929e-03
-1.841786788534628639e-03
5.952849742223375283e-04
-2.512994658802538295e-03
-1.346164731079217301e-03
1.093447494332817080e-03
-2.969489238692518511e-03
-1.682551107093805840e-03
5.179829078710728634e-04
2.469084203508910324e-04
3.771881640223062430e-04
-1.140504088217684110e-03
8.061145103254609536e-04
7.830751056749195999e-04
-1.260367789371793492e-03
7.688734364835219564e-04
5.427807371671291821e-04
-1.157054438841387516e-03
5.829212894686198890e-04
3.068344646476729005e-04
-9.440777388801101797e-04
7.141185311965203867e-04
5.318896174372919573e-04
-9.175421364659928350e-04
5.827286509849455504e-04
2.595147847315792738e-04
-8.266030598122315297e-04
5.848606385703856910e-05
-2.858392345711661194e-04
-9.730344732971396614e-04
-6.123580147758444147e-04
-7.958745107864226157e-04
-1.420048512483835677e-03
3.584785899447772393e-04
4.415850169142996402e-04
-5.680508236414180461e-04
-2.005173140881679199e-07
1.840433923953367363e-04
-8.762134378700836513e-04
-4.396384952024894553e-05
-2.981020537849874091e-05
-7.362369410030642370e-04
3.775259007393591592e-04
3.556353401674802630e-04
-6.804030549720005818e-04
2.555965442796073565e-04
3.764082406868684443e-04
-1.391508589147604901e-03
6.417566165930786238e-04
7.956304477591793134e-04
-1.203365710366613916e-03
-3.159272279718785278e-06
2.517986608379833651e-04
-1.816401592366817747e-03
-3.754343924439819988e-04
-1.134665535183438859e-04
-2.097708990954101106e-03
-9.880374450051557580e-04
-7.887472627716124278e-04
-2.650332980180434683e-03
-1.156732572948010159e-03
-9.536555763941876717e-04
-2.887991464148071449e-03
-3.236585979910412843e-04
-1.639411063204439256e-04
-2.040871783924251993e-03
-1.101203112139372394e-04
1.532449761834682597e-04
-1.508105037391705653e-03
-3.946326600200943092e-04
-3.088837971819959559e-04
-1.696580815514829328e-03
1.041189055336403627e-04
7.351911656858208324e-05
-1.261819850985675118e-03
-6.691841870019872140e-04
-5.657046771274360343e-04
-1.989034824158701555e-03
-8.942437079214453919e-04
-6.454943752173017109e-04
-1.883024350170379524e-03
-7.180071309733052250e-04
-3.991630097688258984e-04
-1.589469755165025169e-03
-7.324812854277786304e-04
-3.467566671073549645e-04
-1.601547908704178350e-03
-4.825962876376780654e-04
-1.396217191112267123e-04
-1.350822905937566071e-03
1.553001288403108504e-04
3.977625297833808113e-04
-6.476976638820383485e-04
2.760706629719721387e-04
6.436766309983751140e-04
-2.319878550693169332e-04
2.693792398186034900e-04
9.003652350818134751e-04
1.529642569593946881e-04
-1.403698166056745438e-04
6.370645461510560320e-04
2.527313684564310727e-04
1.045763340890033767e-03
1.776608733509847530e-03
1.749074119431798637e-03
1.919223651166782237e-03
2.701354047309427204e-03
2.489931401180086028e-03
1.069868352939917170e-03
1.920169614644874493e-03
1.212652465377491795e-03
4.582766445895982517e-04
1.347705411542357307e-03
4.006597864525737328e-04
1.457746179365639418e-04
1.047321070444423227e-03
3.560776632166313526e-05
-2.484536374299696894e-04
7.155513791631353850e-04
-4.793922503384942177e-04
-2.053967517267764505e-03
-1.160920917095689502e-03
-2.398985759138238995e-03
-1.144952152228980368e-03
-4.961745350030212108e-04
-1.583720881680595553e-03
-1.659999457117964034e-03
-1.027504515706318625e-03
-2.313380087581246806e-03
-2.850447900333531997e-03
-2.186366408388840457e-03
-3.586720262913823364e-03
-2.030843193377909230e-03
-1.325076208375707866e-03
-2.904415254714750629e-03
-1.650498395929749515e-03
-9.332802392824792294e-04
-2.556893406042765136e-03
-1.312160875957276047e-03
-5.754533333021359665e-04
-2.180376065294190556e-03
7.922754347548728896e-04
1.524510186322015730e-03
-4.774904968107184975e-04
-3.015988195525024494e-04
4.264210468934943659e-04
-1.727687778902374125e-03
-1.672694341900544295e-03
-9.039203943027528890e-04
-3.018492960911718474e-03
-2.252911145093026805e-03
-1.444412547938359785e-03
-3.662810848784036830e-03
-1.894990138181118717e-03
-1.184178291608633865e-03
-3.344080322533611940e-03
-1.421862328881150911e-03
-6.135124001203763697e-04
-2.728448853513780990e-03
-2.047934378672875127e-03
-9.824093345783620375e-04
-2.988910947565916361e-03
-1.850805366586832142e-03
-3.612274354754754931e-04
-2.381368813319427024e-03
-7.854207545269527432e-04
6.573460944914344840e-04
-9.754647723792238354e-04
-5.988878735503016344e-04
4.220655922249406423e-04
-8.214009389052445839e-04
-1.814988484271164854e-03
-1.145797324675435890e-03
-2.167368134984611842e-03
-2.313900037844096157e-03
-1.836700799541842160e-03
-2.772182903093252295e-03
-2.760250185437774628e-03
-2.381759338727718403e-03
-3.354951820375619981e-03
-2.065336582076713733e-03
-1.752347074215413565e-03
-2.716159701604438717e-03
-1.334835208447660536e-03
-1.161142198787368501e-03
-2.231477216835817904e-03
-1.564338398677786717e-03
-1.574056704441922222e-03
-2.638901143722011643e-03
-1.492915801685776832e-03
-1.820661460995742992e-03
-3.159582462884965356e-03
-9.362118846698834094e-04
-1.390430500197799854e-03
-2.824601864694979182e-03
-7.318699616950360065e-04
-1.212390540052705719e-03
-2.662646685040035398e-03
-1.621916076109628955e-03
-2.061933472665583057e-03
-3.402079106917347065e-03
-2.722147132654716920e-03
-3.097785836569793508e-03
-4.238425823449361307e-03
-2.480586887514797233e-03
-2.830580670422571700e-03
-3.961352348023642472e-03
-1.254084908566834326e-03
-1.625949865884580197e-03
-2.718372070494735632e-03
-8.163386806415887749e-04
-1.146894288023563415e-03
-2.142245838476922529e-03
3.153391257995701399e-05
-2.820306736133449082e-04
-9.256789448010864160e-04
1.338730967191947624e-03
1.045574800176488290e-03
6.866877946442136648e-04
3.214520178445863779e-03
2.638808497656041675e-03
2.378492791764258169e-03
1.842953098968508558e-03
1.080669337961223924e-03
7.013100444716670366e-04
1.782414544009614877e-03
1.004073181320699415e-03
4.205015939240100073e-04
2.180880343614657619e-03
1.520168171194031083e-03
1.037615634561690932e-03
2.858332326461513959e-03
2.051188345057527486e-03
1.856259394693916733e-03
2.411665937574212614e-03
1.446321964512878181e-03
1.434167518405489840e-03
1.800284259666846704e-03
8.853039423766636195e-04
9.273826116626828842e-04
3.086518995229433487e-03
2.331113719181853935e-03
2.375639345918340983e-03
3.468941941807985024e-03
2.706946243419499406e-03
3.182978528224503570e-03
1.434621083794557087e-04
-3.157222498463300368e-04
1.225595864139110425e-03
-4.942956073596662054e-04
-7.225906754827817477e-04
1.004347640184221875e-03
9.712043434389135187e-04
5.517134678969983896e-04
1.644393177437835762e-03
1.140702977021445684e-03
9.031765921339273947e-04
1.884987127360480312e-03
5.417049245641567369e-04
6.819247594218122042e-04
1.878003322939885604e-03
-1.340708224308608280e-03
-8.750946117432852403e-04
7.401322834650317286e-04
-1.849497843346238624e-03
-1.317519078551381397e-03
5.389630848594683526e-04
-1.724073500943217475e-03
-1.075912470699164590e-03
6.977824699899306355e-04
-1.808721808490464577e-03
-1.341487015494644778e-03
4.004868269137900195e-04
-1.449531730771546137e-03
-1.131075127898416082e-03
6.813884665500990123e-04
-2.294130227007872697e-03
-1.822810078036044001e-03
-4.832962733820213721e-06
-2.383393275559757014e-03
-1.684402704798325595e-03
-1.134352882308403460e-04
-3.407104236872330553e-03
-2.517062351495392720e-03
-8.820930318923275639e-04
-4.174136480310911869e-03
-3.148629673123999259e-03
-1.616619860477923202e-03
-3.989385212452219685e-03
-2.975591450819939192e-03
-1.228210061786708107e-03
-4.234993200463837634e-03
-3.097272018864454142e-03
-1.022392423547937397e-03
-3.631903015462375865e-03
-2.522517605979354531e-03
-1.270292585223360454e-04
-3.620765258544933907e-03
-2.492178483834592891e-03
1.610568942178137802e-04
-4.052301227545726525e-03
-2.887877539136147250e-03
-8.613246393832294759e-05
-4.169863650590147942e-03
-2.953261589654442021e-03
-1.337055987287065278e-04
-4.808526095324893411e-03
-3.471479763063106162e-03
-7.454566406035518936e-04
7.402602671054869972e-04
7.225851066670304409e-04
-2.621345794813025368e-04
1.641067286958092231e-03
1.498372576061038483e-03
-1.283808185192642361e-04
1.735072874063701672e-03
1.355815049679159889e-03
1.314780366653378163e-04
1.661511691350733453e-03
1.265927018596005836e-03
4.037333046093150176e-04
1.237890432002565402e-03
9.772000338598486359e-04
-7.556872897454726271e-05
3.143618011068172028e-04
5.454285746842455949e-05
-4.373764159344884655e-04
3.569671011585434824e-04
-1.473520327850109067e-04
-3.042516207527882675e-04
6.272995771736290934e-05
-2.278098932922031070e-04
-9.689508474127934718e-04
3.577063848379738323e-04
3.638301812232383383e-04
-9.048304303597272608e-04
-5.478831006915310534e-04
-4.962421152151507168e-04
-1.452589188846735132e-03
-3.372992285319811781e-05
-1.177869399304744497e-04
-6.774270714975158926e-04
6.433870198795571321e-04
5.070726128353405388e-04
-5.889801889916468922e-04
7.404422273131558299e-04
7.614036643247307657e-04
-1.269758864400517264e-03
-1.241473966104706913e-04
-1.075430802783548020e-04
-2.109433908223152469e-03
2.901895999798413586e-04
2.964737402213676594e-04
-1.610231772041301277e-03
-1.135467496646210976e-04
-4.960256790780588897e-05
-1.729982083158541819e-03
-4.586544519822920510e-04
-3.892752498701042242e-04
-2.039935330964961265e-03
-3.073762863705823507e-04
-2.852922050378320687e-04
-2.068389707743854312e-03
-5.173510945303095654e-04
-3.907127606663360537e-04
-2.373542257283699306e-03
3.303894219697054314e-04
5.087009069923976957e-04
-1.383580713816699682e-03
9.488632362088202836e-04
1.035056544703571004e-03
-5.429119136897244454e-04
1.040837077789850918e-03
1.040400354896152749e-03
-4.277064364733736395e-04
3.269849016134173335e-04
4.767155709928385743e-04
-1.005900718580216274e-03
-1.831922044017229411e-04
3.464172046401342927e-05
-1.280786319827656667e-03
-5.996993174324974753e-04
-2.728426695397348262e-04
-1.514649879025158291e-03
-7.547644838609653996e-04
-4.226068090583908247e-04
-1.671476423258848407e-03
-4.710944362929304127e-04
-2.170716605174891154e-04
-1.431451911302007197e-03
6.096392345387843716e-04
8.486297461501174366e-04
-3.338244189043031531e-04
-1.720481832374438035e-04
8.536266878344545299e-05
-9.870883890249664352e-04
4.213378110867128023e-04
1.053908319584852607e-03
-2.041594960887544211e-04
8.676709398968287612e-05
8.518169681725442288e-04
-7.598500450747078391e-05
6.803470746262754113e-04
1.405411784046976722e-03
9.333697821895887894e-04
2.691268918470110429e-03
3.501796836265105937e-03
2.996813898009881814e-03
1.899308384009620269e-03
2.809848670449636553e-03
1.843782431748074331e-03
1.680413017564486933e-03
2.460631699452461244e-03
1.550337807456379042e-03
7.788378295648046507e-04
1.550655099011778769e-03
8.929546688300530298e-04
-1.022589247724014225e-03
-1.892198087527128224e-04
-8.710655872151485454e-04
-2.618757874447541489e-03
-1.797327320069966230e-03
-2.394821169796285208e-03
-2.473624914454152814e-03
-1.673136662300395714e-03
-2.511189304061519929e-03
-2.272866243249159219e-03
-1.600147041244752519e-03
-2.691633704142422021e-03
-1.427629523379789949e-03
-7.017349695071598567e-04
-1.843735058289339059e-03
-1.242073030587993948e-03
-5.470133061268465848e-04
-1.695450762576377734e-03
-1.886190677307791929e-03
-1.093125603937707049e-03
-2.452985519631116756e-03
-2.414589946596105291e-03
-1.642768693862335389e-03
-3.257210013873388082e-03
-1.737419765388851069e-03
-1.025996249065849481e-03
-3.168789350328771182e-03
-2.061965917384645484e-03
-1.321287725862315765e-03
-3.679887534137917231e-03
-1.775980203401871437e-03
-1.079813803019729701e-03
-3.265610744623211568e-03
-1.949715882318225511e-03
-1.292547836051884417e-03
-3.503491984433998365e-03
-1.725627587742602827e-03
-1.054044494222085423e-03
-3.088511057155940952e-03
-8.171278076730159904e-04
-2.447103135184519225e-05
-1.959728254674523648e-03
-3.059502688895888545e-04
8.229300948149869538e-04
-1.102039875056921208e-03
-1.238891801412820865e-03
8.840833080143878386e-05
-1.528885383902527182e-03
-1.989527423025153584e-03
-8.370868282583277149e-04
-2.014055346905685440e-03
-1.709534826590492418e-03
-8.400271259130573506e-04
-1.877065109616386958e-03
-2.699052411414620649e-03
-2.043960881408446711e-03
-3.186177639711763269e-03
-3.015322836906808145e-03
-2.512331730338861029e-03
-3.594245129623690940e-03
-2.870820670208213635e-03
-2.301324189120746832e-03
-3.343289562616166052e-03
-2.488271001907212468e-03
-1.970077006825867328e-03
-3.022601435704118378e-03
-2.164422791740741592e-03
-1.949239754758657229e-03
-2.962873435839026744e-03
-2.066703356061737416e-03
-2.096835042814426502e-03
-3.021135401564931360e-03
-2.065254083355669897e-03
-2.490343413044135683e-03
-3.802739113388265216e-03
-2.027820034672557416e-03
-2.702400212999638961e-03
-4.154731118303721903e-03
-1.280096276000135605e-03
-1.878640516374915264e-03
-3.386029414051251220e-03
-2.048924666985344270e-03
-2.603976373125010089e-03
-3.945505367418342471e-03
-1.313206077297334471e-03
-1.801088662142034513e-03
-3.015667523251750175e-03
-1.394181171370431713e-03
-1.812978055174856249e-03
-3.014154783377886657e-03
-4.565930600302148864e-04
-8.566235454303553279e-04
-2.062795809485146528e-03
1.139527505108896104e-03
7.192286642181413506e-04
-5.457234609564601963e-04
1.918163663401630144e-03
1.545928102627598492e-03
3.488334292147320602e-04
2.404219909190731790e-03
2.041470029509072793e-03
1.280303359916977078e-03
2.511769136490200286e-03
2.012452950181068453e-03
1.450658006915555003e-03
3.099682791372005558e-03
2.429920135520106331e-03
1.845982019606651724e-03
3.270972839760562332e-03
2.532533975265886719e-03
1.802512365726822345e-03
4.099251338220429898e-03
3.261641014643678650e-03
2.655437518874616092e-03
4.079789522109729047e-03
3.164418533844380165e-03
3.024352426291328309e-03
2.030844081121045610e-03
9.886136043922536410e-04
1.029400587006399845e-03
2.148081498272523537e-03
1.257543525750391645e-03
1.253381988967901955e-03
3.752125769322145303e-03
2.924543674126652872e-03
2.838593035977930636e-03
3.550717409712586016e-03
2.843224050276047313e-03
3.240374021394922584e-03
3.489241618037585107e-04
8.688293894802711671e-05
1.912625318006487942e-03
-1.417470723067342647e-03
-1.405330030830737476e-03
5.061276480296484845e-04
1.785701543462093631e-04
4.031418092891079721e-05
1.200384944140809890e-03
-3.781985173058632389e-04
-3.771471000872551470e-04
1.000049259040727487e-03
-1.270237620460332650e-03
-8.264850939807599816e-04
9.025505007548008081e-04
-2.874457618370819794e-03
-2.187303865622046081e-03
4.605138363369548637e-05
-3.330789643394756541e-03
-2.500010646735030539e-03
-2.554222159788786567e-04
-3.858219230941688054e-03
-2.912511963515077192e-03
-9.577394820707618760e-04
-2.835557771937063584e-03
-2.164904653720820145e-03
6.525720907880850838e-05
-2.419464720148346848e-03
-2.006394283464171292e-03
5.802102119038314533e-04
-3.787407030743537503e-03
-3.287175448608741120e-03
-3.333496786709546494e-04
-4.444541709873154819e-03
-3.652115986129969398e-03
-5.720900478383392261e-04
-4.594898450843067778e-03
-3.570712513043912666e-03
-7.749634625239638312e-04
-4.503070053702921960e-03
-3.414248042910623775e-03
-1.255166132070857990e-03
-4.327108560612958482e-03
-3.101397826096623494e-03
-1.229110734387159863e-03
-4.113883201846231172e-03
-2.837423486486575358e-03
-9.384141452965808015e-04
-4.083519486369847039e-03
-2.864372120517681784e-03
-6.966717846657220986e-04
-4.950809471105066875e-03
-3.663011555923075240e-03
-1.137868427133736579e-03
-5.616481582366399453e-03
-4.346126831679088080e-03
-1.468162841697483265e-03
-6.074910360178271095e-03
-4.777173715442863816e-03
-1.729447718025257149e-03
-6.272490357022805774e-03
-4.941415933142778542e-03
-1.741190374849294932e-03
6.070045633920132357e-04
4.804400497409308849e-04
1.407229087703501763e-04
1.509016889031427645e-03
1.264138877895612263e-03
3.080296367535478126e-04
1.549449886949895525e-03
1.193991324149015721e-03
7.173689288548428878e-04
1.652384720558896418e-03
1.166364758946992521e-03
9.483783693643191249e-04
9.511078450639286370e-04
4.188243830180400683e-04
2.609895149081051854e-04
1.244396692607870948e-04
-3.870534586080738213e-04
8.700986601547643258e-05
1.263909798433916548e-03
8.189356094277210887e-04
1.189384418828455569e-03
6.306893604971757633e-04
3.813914988906869758e-04
-1.404863046987466716e-04
8.777046385032128513e-04
7.766476436462835080e-04
-1.843209956762232433e-04
1.044666674155356623e-03
8.494932795302226379e-04
5.705308933212936478e-04
1.274494497681054718e-03
9.948886128408186529e-04
1.011814824853938611e-03
1.579758881830001498e-03
1.268703910832559047e-03
4.467728837659311076e-04
1.960452950391079752e-03
1.675656222244655165e-03
8.719707224400605075e-05
1.274996367418940136e-03
1.116568647943838198e-03
-6.784182434426164025e-04
5.462642894978730207e-04
3.817078317545222004e-04
-1.520055633066205118e-03
2.362101911596689217e-04
5.899427046104016521e-05
-1.564718077398452329e-03
1.704733209927755786e-04
4.096598369979777786e-05
-1.384876872392324775e-03
-2.932129992182739295e-04
-4.222028378370417095e-04
-1.772809132868926338e-03
-3.204735607221850390e-04
-4.714820222906171161e-04
-2.064233002104310169e-03
4.680286176988801626e-04
4.087056524240696145e-04
-1.224391598158825444e-03
7.274813584722220495e-04
7.223735862919778610e-04
-7.607326221131181484e-04
1.759900371372266062e-03
1.707291010854149931e-03
2.855984581969401594e-04
1.298667028492494048e-03
1.228151978314585618e-03
-1.380950806009874712e-04
4.258628719166709670e-04
3.937441955038769930e-04
-8.824120019964698915e-04
-1.461776988728392859e-04
-4.711920582151012484e-05
-1.215138187739072274e-03
-6.892478560570695608e-04
-4.270665835408606319e-04
-1.706358056186121344e-03
-8.482818843547494702e-04
-6.057073595803484948e-04
-1.875830445630115263e-03
2.016648675742966636e-04
3.541973363938007787e-04
-8.104734671294593854e-04
5.000658378314439293e-04
7.453368609631196798e-04
-4.951933348193495463e-04
5.812981623929654520e-04
1.163826079059527554e-03
-3.565623219626090179e-04
6.825479393613765895e-04
1.313334957772420821e-03
-9.042070148209580438e-05
1.110002848110642332e-04
8.695786416056770904e-04
-4.426251865259680498e-04
6.614372079676324439e-04
1.374754005898232590e-03
4.421349113754321049e-04
3.284232343405328689e-04
1.134409630053461512e-03
5.941202620682971411e-04
6.995965986202302641e-05
8.197473594468720169e-04
3.400840272154150262e-04
-8.765095219768995628e-04
-2.472383869487376935e-04
-7.014900636147509798e-04
-1.858920019970599627e-03
-1.146761753562780149e-03
-1.586802562970565569e-03
-1.657163966086387229e-03
-9.796718457108527945e-04
-1.245396256824720087e-03
-2.269424125359182157e-03
-1.500438026742845123e-03
-1.701107023613642388e-03
-2.499037467648041345e-03
-1.646314656479177943e-03
-2.068159853290039724e-03
-1.887249795263750167e-03
-9.086226228723102505e-04
-1.605402259687559565e-03
-1.578887705210821118e-03
-6.116127064860237472e-04
-1.459507582063549781e-03
-1.930250874488546355e-03
-9.466172077040155199e-04
-2.169042623506817723e-03
-1.806992013065258180e-03
-1.047688707890286931e-03
-2.722199254381430650e-03
-1.837795149219113335e-03
-1.183924348047762747e-03
-3.354056685805522839e-03
-1.588208365257040133e-03
-9.324605007641156938e-04
-3.121402679578512938e-03
-9.552741475537481798e-04
-3.807896893604193096e-04
-2.485808746549339650e-03
-8.023841108703747916e-04
-1.955917384613711318e-04
-2.347811130000787474e-03
-9.500984706542336001e-04
-2.384556637720297383e-04
-2.323278572810580020e-03
-3.312355816011894864e-05
7.715513756975890189e-04
-1.192608768833211454e-03
5.178188063631371458e-04
1.579917096792941844e-03
-2.014950463075708095e-04
-1.236868557189806789e-03
-1.653878245988523832e-04
-1.476061924844688112e-03
-1.311094073675230691e-03
-4.662469896591992847e-04
-1.404882013316697013e-03
-2.145098714103744249e-03
-1.468752977549934264e-03
-2.289121480083078190e-03
-3.395133447931195439e-03
-2.806227597879798735e-03
-3.870053611435339894e-03
-3.547716052354164644e-03
-2.962134679258805400e-03
-4.013841058607643675e-03
-3.266707395386598666e-03
-2.591284659193803398e-03
-3.713516519243010173e-03
-3.073739773670697197e-03
-2.337817323624789140e-03
-3.449413234011957947e-03
-2.728160767794278550e-03
-2.281419149530333236e-03
-3.400435351798903640e-03
-2.851183924109995747e-03
-2.764960746717578296e-03
-3.709782861041791696e-03
-2.459282414950493371e-03
-2.757611848412476648e-03
-4.090057488303538470e-03
-1.623333114721793721e-03
-2.212181300322162668e-03
-3.714471814333811326e-03
-9.993171654548368976e-04
-1.625441358014559226e-03
-3.098997956162165106e-03
-7.070264542263717152e-04
-1.238631902065634883e-03
-2.662810959382418390e-03
-3.576159277355322606e-04
-8.161150654602230322e-04
-2.232380015824067272e-03
-1.905545204816691627e-04
-5.949307291906678332e-04
-1.925662638416577059e-03
3.354380163599607182e-04
-1.119004069007799354e-05
-1.366971207935047897e-03
1.934073866937867110e-03
1.615303104118736210e-03
2.021322730003621596e-05
1.724200816899952148e-03
1.308535694996863655e-03
-3.529388620148782752e-04
1.370196950189776211e-03
8.808104239650197667e-04
-2.761306175220695313e-04
1.750577728701215594e-03
1.297691511060256302e-03
3.793482025138991513e-04
2.175953919549281773e-03
1.637640366193111093e-03
6.679881089455524511e-04
3.745793304257239061e-03
3.127830977491657775e-03
1.904553658858853778e-03
4.170386723063097129e-03
3.336021766502219113e-03
2.202344454625967691e-03
4.253480653566375086e-03
3.413855243508386126e-03
2.718044759407686663e-03
2.375584795793421640e-03
1.524380746699708451e-03
1.168723354614301883e-03
1.855302859545562844e-03
1.078243757961018165e-03
6.779060296413104945e-04
2.162840801002664879e-03
1.478997066058597952e-03
9.952535854833087330e-04
8.510312453851639342e-04
3.978926000702878978e-04
6.976460264356831864e-04
-1.385473050684819102e-03
-1.417894368695766030e-03
4.123818398552073737e-04
-2.200729555358214937e-03
-2.030117570837946910e-03
1.268969451169385271e-04
-1.807710648795488170e-03
-1.603690172546163402e-03
3.231314461421222624e-04
-1.531426264241841310e-03
-1.125914821359980675e-03
1.385108750523155472e-03
-3.112959798019907312e-03
-2.384921811389771693e-03
6.823866013397548958e-04
-3.588295847722103044e-03
-2.609150755199744938e-03
6.322025000511744073e-04
-4.126484322002676834e-03
-2.981480195665266869e-03
-2.338693100233049879e-05
-4.446621794034426312e-03
-3.116510525391697015e-03
-6.095051788772311557e-04
-4.201715612158699563e-03
-3.043750698031354087e-03
-4.373938662522257716e-04
-4.736655593795454852e-03
-3.863311114916240935e-03
-8.794349808192019084e-04
-4.589583762187836660e-03
-3.671609220839654446e-03
-2.211453594014909740e-04
-4.710201040160733044e-03
-3.625998833743978873e-03
1.737100924957468901e-04
-4.913500864560387156e-03
-3.738158206072121712e-03
-3.017353152469991564e-04
-4.791566920352872613e-03
-3.615167299022928674e-03
-8.425854799215063686e-04
-5.054636535755266044e-03
-3.771985699875497668e-03
-1.418183596299615748e-03
-5.325952413780011239e-03
-3.994667157128164135e-03
-1.868708530220936342e-03
-5.612622251045036592e-03
-4.266695253610091297e-03
-2.090806428380915984e-03
-6.443735839991493811e-03
-5.055562598672473998e-03
-2.464411244584845985e-03
-6.441468805899057230e-03
-5.174323587109134516e-03
-2.006073253542446297e-03
-6.256785649126937916e-03
-5.002596765799051555e-03
-1.597944476847373016e-03
-6.220569966776391159e-03
-4.953814487614707253e-03
-1.564935708427769075e-03
9.137980502906492032e-04
6.407822573213249519e-04
5.665540064313452943e-04
1.242951570674063512e-03
8.127653651573518538e-04
4.241597503734784299e-04
8.758239056545785326e-04
5.475638677125677480e-04
6.183685246712562018e-04
1.066793804873970549e-03
4.104790385935809115e-04
6.834164538345192854e-04
6.135324759810239842e-04
-5.475459446104667677e-05
4.358428047632296673e-04
5.783719441009757241e-04
-2.301107998103923617e-06
5.953356720447171898e-04
1.399001738022537375e-03
1.009238254988488199e-03
1.240462154157442789e-03
1.394180445002659360e-03
1.128214886392877279e-03
8.408058222279874349e-04
1.275883315387809627e-03
1.073727873116440057e-03
5.042968964741554325e-04
1.758451228499810070e-03
1.489522620283419748e-03
1.259883073612161775e-03
1.644876301520270751e-03
1.489706381174408590e-03
1.149953998687146869e-03
2.012136609514759283e-03
1.818611033335403374e-03
6.092160649090762586e-04
2.058985358094752791e-03
1.791894068251519059e-03
1.637678439216336853e-04
2.169115208948722579e-03
1.939534235986786238e-03
2.176414008018373830e-04
1.108457007878998644e-03
8.547206341083230354e-04
-9.891278583461363735e-04
1.258807728026778861e-03
9.362197083286777919e-04
-6.962051738029026047e-04
1.724713418586929555e-03
1.475466845110203103e-03
8.755961388813172778e-05
8.253422632970292125e-04
5.833905899763897193e-04
-5.862292739561583916e-04
2.199105121278753180e-04
-5.954702279952761037e-05
-1.304798151021080432e-03
-2.487545931399229846e-04
-5.244628768552356182e-04
-1.858447335009902899e-03
-3.531168107600867237e-04
-6.452172328388133468e-04
-1.962975414860494098e-03
-4.200189461129294314e-05
-3.653525351317772098e-04
-1.784533648878439301e-03
-1.334024469427741802e-04
-3.841252160403571796e-04
-1.761378014447921017e-03
1.241922968806443285e-04
-1.049682566056577178e-04
-1.396431761536710055e-03
-1.054533645048553060e-03
-1.003115378620468264e-03
-1.801695925615370885e-03
-2.052855880844269183e-03
-1.783685571561704347e-03
-2.991937515224485974e-03
-2.277687691005655501e-03
-2.030785288897486891e-03
-3.503183099977585230e-03
-1.924459281282903328e-03
-1.741013467588292543e-03
-3.033492251381111286e-03
-7.625373905659866506e-04
-6.532858753566690713e-04
-1.949268727822799519e-03
1.325282604857545642e-05
3.838173300849412068e-04
-1.075158896402178717e-03
4.128872295663150874e-04
8.811309906395572988e-04
-5.828482327230733026e-04
6.438592281527631645e-05
5.665716599026017269e-04
-6.314201615379321690e-04
-4.427856861044504448e-04
-2.216428471502922205e-05
-5.409792836902069853e-04
-6.866973999084539015e-04
-1.243986082462093779e-04
-1.675393178127368443e-04
-1.799769328838206773e-03
-1.171568744723305378e-03
-1.173636200489764367e-03
-2.267690629150608504e-03
-1.714934942278019273e-03
-1.924785884033668355e-03
-1.170669990181519293e-03
-7.546043303903760555e-04
-7.350703207620689185e-04
-6.905284107860486633e-04
-5.842826505814769159e-04
2.127437283961042215e-04
-1.187748272364769599e-03
-9.734627418022640628e-04
5.294220318953111407e-05
-6.298004852308015239e-04
-2.963603971444268978e-04
7.040776689420356633e-04
-1.026131821441546733e-03
-3.067519282756180120e-04
-9.224963215716011194e-06
-2.060927782146652291e-03
-1.127958111169546310e-03
-1.647165501077120899e-03
-1.779540162808357535e-03
-7.602348423891631306e-04
-2.094779341465111567e-03
6.256223123012333168e-04
1.384942276894591574e-03
-3.451213539523142809e-04
1.387684291324872568e-03
2.047192119237997709e-03
-9.396357567652113666e-05
7.261853935454395774e-04
1.256949984942227431e-03
-8.365755530044049560e-04
1.309520489945073876e-03
1.869561415390867155e-03
-2.672054103662074463e-04
1.334679646916724473e-03
1.974674295701206190e-03
-1.098237836815011309e-04
-8.155876073328760978e-05
6.382243341510543269e-04
-1.497257755944480292e-03
-1.025236440005352799e-03
-2.671173664952694463e-04
-2.386500930023545321e-03
-1.094961554001834623e-03
-2.459557821498885430e-04
-2.144777196433496694e-03
-1.407236960641359072e-03
-5.833163573319715854e-04
-1.908160952712959412e-03
-1.151373039618710245e-03
-5.249175502827391508e-04
-1.340717262810678552e-03
-1.575620743447422130e-03
-1.137936707396695673e-03
-1.861896591325026308e-03
-3.151042338014753939e-03
-2.690702265495237451e-03
-3.548187941720894797e-03
-4.151571669171566850e-03
-3.695170865306031914e-03
-4.673478864271127763e-03
-3.620356519997421779e-03
-2.979546396682056578e-03
-3.943399205183161470e-03
-3.798305223758070750e-03
-3.035547233039861265e-03
-4.159365490185056545e-03
-3.758334298874811512e-03
-3.238029794602738983e-03
-4.314457493130768699e-03
-3.464578271777333553e-03
-3.272180329713993922e-03
-4.311484843334417900e-03
-2.207034849155870265e-03
-2.354098891193214058e-03
-3.603393649386913908e-03
-5.384137920916123084e-04
-1.103698085644780292e-03
-2.550762487204363046e-03
-1.319022658315402506e-04
-7.529614331849609002e-04
-2.245238445899750378e-03
1.040856490395507863e-04
-4.112012376283675401e-04
-1.856580316519567753e-03
-2.721516568746396193e-05
-4.088914118599975894e-04
-1.806757336740811215e-03
7.869688584602570680e-04
4.439393854065910470e-04
-9.211280833509835663e-04
7.380382766674534569e-05
-2.354162041827602284e-04
-1.573697672330175244e-03
-3.094416498373454274e-04
-6.173886988246931728e-04
-2.293303682710830585e-03
2.947335044422498378e-04
-1.028324210187552126e-04
-2.039065072814235605e-03
1.137580994867414539e-04
-3.471164516941106239e-04
-2.025114016789203875e-03
7.258982308661783827e-04
3.345200720307005119e-04
-8.699120535870439024e-04
1.498469660460122893e-03
1.149402608539911276e-03
-1.336856844140345659e-04
2.741651841534859489e-03
2.322221098237510755e-03
9.248432953796136263e-04
3.283594437514411341e-03
2.664076764882338921e-03
1.277003570533480781e-03
3.394032917005275051e-03
2.729007378259702948e-03
1.702563414550941354e-03
3.618863112330768760e-03
2.877149735756945673e-03
2.204753685897598101e-03
3.248123182960776199e-03
2.520640967584193096e-03
1.823035197943038022e-03
1.659209690904393190e-03
1.052334335794157276e-03
4.850123932312213997e-04
1.510481994328764441e-04
-1.463701566240254587e-04
4.215386512615517013e-05
-1.715790669045030555e-03
-1.650692157228155670e-03
-1.258610221269741692e-04
-1.979641970773358267e-03
-1.791016761549257558e-03
3.385240519818336459e-04
-2.485969617405698381e-03
-2.200377177519765269e-03
3.551447589375359174e-04
-3.593102174047245294e-03
-3.012534961320149657e-03
2.784092574611509471e-04
-4.760276750262063331e-03
-3.900793733777975503e-03
-4.633605538696680746e-04
-4.652739055443957071e-03
-3.498689157069307786e-03
-2.249841275914163949e-04
-4.990558486799856475e-03
-3.536082941149574360e-03
-5.629355088345673391e-04
-5.292505239207145711e-03
-3.653252627321373295e-03
-1.078639554818323605e-03
-5.405616988200903292e-03
-3.884340479861207208e-03
-1.345068997657271294e-03
-5.090278887485288548e-03
-3.739720858223986432e-03
-1.214681848104057693e-03
-4.500672691359432209e-03
-3.148932321015982146e-03
-3.182796872158493101e-04
-4.895484212004164518e-03
-3.518018649418267352e-03
-7.621168512600924919e-05
-5.502941764918752379e-03
-4.150255200805650149e-03
-8.032750162583457941e-04
-6.145037399615444797e-03
-4.824307130965248963e-03
-1.814010138360032647e-03
-7.134064875675717558e-03
-5.775862112851940129e-03
-2.959564868457021606e-03
-7.554781696311759984e-03
-6.192744936060417572e-03
-3.544016635976561871e-03
-6.928843418889362067e-03
-5.574154543432376790e-03
-2.895987543198138420e-03
-6.565253137729060856e-03
-5.157022994589072380e-03
-2.475916403746984077e-03
-5.598808052351088131e-03
-4.299811570731264070e-03
-1.266342144710115797e-03
-5.855039147124244461e-03
-4.586251150340380292e-03
-1.198231710747305534e-03
-6.351565027471865917e-03
-5.095732805565607662e-03
-1.694067298394527675e-03
1.297671948034590742e-03
1.032879171011543687e-03
7.986423691825903295e-04
7.786366412709942904e-04
4.309665037029774062e-04
-7.962833854591743236e-05
5.867895521943761574e-04
2.432062352117177672e-04
2.789101347058274907e-04
3.232839288052589423e-04
-2.633743686942407493e-04
9.637246168328955837e-05
2.585134203192954107e-04
-5.013915137130362052e-04
2.195353321580037161e-04
1.704838115920288800e-04
-5.023661826665867932e-04
-2.548376989736240498e-05
1.103595614691568446e-03
6.880385355104759980e-04
7.685375899135123709e-04
1.318251854444760706e-03
1.019840018006759651e-03
9.935716058066803788e-04
1.692577861801746516e-03
1.315095286180761663e-03
1.462463504387007856e-03
8.309307291365728571e-04
6.133952066358303859e-04
2.860361575962954805e-04
8.888267154401052750e-04
9.049934615872345673e-04
5.977750195309836979e-05
1.625322355679295052e-03
1.045028876205880784e-03
1.627093057818854117e-04
2.277421713363934289e-03
1.544071240911257031e-03
5.124865923624831064e-04
2.517711028480725758e-03
1.895832120015059378e-03
9.021502316395534592e-04
2.015708114129632130e-03
1.559034367586910504e-03
1.420328967507349734e-04
2.892245171185165754e-03
2.562743239511562632e-03
1.040964962581810175e-03
3.152290002545178344e-03
2.839583415014078349e-03
1.449602915158357437e-03
1.910845622945236185e-03
1.579577049842840987e-03
3.873498925170379176e-04
1.012098011856905986e-03
5.853869983726804485e-04
-5.075663640524952745e-04
4.540601638085148750e-04
-1.055677216668246207e-04
-1.130025201372643166e-03
5.047285295364659693e-04
-1.208158451966279983e-05
-1.082154386601487470e-03
-7.430787156522339961e-05
-5.805211302193338720e-04
-1.746232960259120389e-03
-8.818374155374086344e-04
-1.366613781356389775e-03
-2.497462715295814973e-03
-5.417351730508213970e-04
-1.010787075133270669e-03
-1.592501479564731965e-03
-1.429451467328815171e-03
-1.736378982917860612e-03
-1.774772454313249112e-03
-1.336185694665098381e-03
-1.556301407401269356e-03
-2.120037546996069930e-03
-1.344034129624975277e-03
-1.544688120773990208e-03
-2.432309833679688772e-03
-1.164234026134250248e-03
-1.414454334872931353e-03
-1.912879832126302250e-03
2.452640550955477818e-04
1.806269045455956158e-06
-4.513325727205563993e-04
7.814938514033314835e-04
6.887803031671512703e-04
2.781579844316300312e-04
5.142246103149956732e-04
4.683310859762635967e-04
3.036109429744381191e-04
1.192098530225836270e-03
1.122632604862854825e-03
1.435643506677431250e-03
5.192515231324622412e-04
3.827038387286403848e-04
1.058771923471393556e-03
4.733351385185248505e-04
4.449993860722017817e-04
1.375330575048257621e-03
-1.129556566749023022e-03
-1.125578647015240122e-03
4.542151301266248624e-05
-1.412062964602436074e-03
-1.376100050188266630e-03
-3.616066707433066474e-04
2.931821132305457750e-04
1.518391238567371165e-04
1.141361444914524735e-03
-2.610696441107609474e-05
-2.720760918779290406e-04
1.086124604281937583e-03
-7.516187440562251468e-05
-1.404694886472526521e-04
1.227367880201270418e-03
-2.884564223658530983e-04
-1.176470121582391036e-04
1.296687090027393669e-03
5.212396621453734311e-05
3.988093370731477373e-04
1.735454957112977188e-03
5.441249466003821684e-04
1.048476578863656453e-03
1.604711143110678024e-03
-7.040496325416140252e-04
1.913377492650442427e-04
-6.619201150167476231e-04
-5.363294942014184977e-04
2.910765637504120510e-04
-1.494864368434789016e-03
1.571067261573445839e-03
2.199334734857831108e-03
-1.233937088531131320e-04
1.176603328277179769e-03
1.734778551448632172e-03
-6.180532453653267162e-04
1.512085164882058779e-03
1.968454902392043158e-03
-1.880394303385872273e-04
1.487503013852231040e-03
2.066340001540988101e-03
4.777558462420031032e-06
2.739814443998166604e-04
9.407558424659646533e-04
-1.174308677333086963e-03
-1.037679077941917362e-03
-3.337623276434419257e-04
-2.418150445663582414e-03
-2.735442412932303623e-03
-2.083767905359276956e-03
-3.787260049421239429e-03
-3.605067916115367154e-03
-2.989514559484208935e-03
-4.239947375592762607e-03
-1.879796524729104770e-03
-1.341087010853290627e-03
-2.095394974175864965e-03
-1.211604788132416557e-03
-8.289166800718556719e-04
-1.625255755203183338e-03
-1.900500465975666102e-03
-1.615426499578468972e-03
-2.420561667111940235e-03
-3.425234082030164436e-03
-3.087772402914230104e-03
-4.018487563577819235e-03
-3.558825578189577215e-03
-3.065825064584291361e-03
-4.077301142834770242e-03
-3.967505716857586823e-03
-3.304445186607273075e-03
-4.448588453742350832e-03
-4.069926141505169313e-03
-3.598523360854774186e-03
-4.767182931806028187e-03
-2.953573384292777423e-03
-2.843870060688872409e-03
-3.970791793200127533e-03
-1.497170603201897644e-03
-1.729096314008491796e-03
-2.901910504464143802e-03
-5.833115171095330223e-04
-1.237253007767054368e-03
-2.610504661677912584e-03
1.776457001083786710e-04
-5.530422026931625015e-04
-2.062585822624698421e-03
-1.062377511804895485e-04
-4.940050531835822644e-04
-2.008276913361757565e-03
-1.470570764881606656e-04
-4.389696616062702486e-04
-1.828279779002308335e-03
1.064100982989438443e-03
7.260280564656079955e-04
-5.384370293594935774e-04
-1.212729226297065894e-04
-4.915369215763113484e-04
-1.759762124707629858e-03
-1.396984336029411097e-03
-1.669868076513550620e-03
-3.254575832090688455e-03
3.903099239878621269e-05
-2.952424215266427230e-04
-2.249048996258415194e-03
3.744798429565453224e-04
-1.277436191597319890e-04
-1.880140608210453118e-03
1.126161210048641764e-03
5.394267676324324134e-04
-9.074853176875297958e-04
1.934559342863037198e-03
1.533291498440785168e-03
2.346388646200669342e-04
1.771462230758832955e-03
1.369496120269563183e-03
-2.771558854466798900e-05
2.029748337823142346e-03
1.537980426637719717e-03
-2.046976015289244446e-05
3.470398596941990169e-03
2.904127975796138607e-03
1.690496389046581291e-03
4.288415418885800461e-03
3.432770785190640724e-03
2.792635109347567802e-03
3.389587934265221505e-03
2.515928500859415749e-03
2.139932068938614571e-03
1.294930679899355041e-03
7.058112875609463908e-04
6.254034630311734776e-04
-4.441390137130744832e-04
-7.693061585085849297e-04
-4.266063395509676935e-04
-1.874473161571123432e-03
-1.807953082763473756e-03
-5.043840537815337793e-04
-1.348893010929802733e-03
-1.074013976261931720e-03
9.001579999779467552e-04
-2.392494443302093602e-03
-1.884483245407570949e-03
7.276360522080930300e-04
-4.614911460852597590e-03
-3.885890602331487122e-03
-8.899712506119336923e-04
-5.038168611798325529e-03
-4.143390886986919076e-03
-1.507411701948906287e-03
-4.350796612892282589e-03
-3.141189723873679274e-03
-8.474507868276947133e-04
-4.819159602210725674e-03
-3.326005263946767588e-03
-1.262158947285886654e-03
-4.760131181376000067e-03
-3.154320853147150102e-03
-1.204387430283285687e-03
-3.956689738450967254e-03
-2.296722634582743731e-03
-3.293012323857248094e-04
-3.798606391106342135e-03
-2.201095498451833329e-03
-1.021455526270652624e-04
-4.845783480023011132e-03
-3.184769953740201019e-03
-7.321134779783258122e-04
-5.529723105742646687e-03
-3.817636461824504539e-03
-8.100859471772746487e-04
-6.213059935081220730e-03
-4.659969074919021424e-03
-1.524549568977525728e-03
-6.322879229899719053e-03
-4.922664589319742517e-03
-1.903231059147713006e-03
-6.274416543568313298e-03
-4.868535430689208479e-03
-1.855082341201651219e-03
-6.753549470087082292e-03
-5.327446775178245816e-03
-2.484826042865724734e-03
-6.488048607190913600e-03
-5.090904463658619573e-03
-2.319043387642590135e-03
-5.728676557566730020e-03
-4.290668933785181209e-03
-1.547637583645214768e-03
-6.210014848875867847e-03
-4.736531604357564415e-03
-1.974685497019730823e-03
-5.629769594147482695e-03
-4.280263602304630079e-03
-1.322055493410563424e-03
-4.908754353395727160e-03
-3.595603586639308912e-03
-3.589520656184032365e-04
3.285881471342525276e-04
7.855234569746837546e-05
-1.379850860952016613e-04
-1.775114567011073672e-04
-4.344544136707060049e-04
-8.483971079346568469e-04
-3.154777006933054493e-04
-7.141610176919923432e-04
-5.145178373284356801e-04
-2.590026557324022266e-04
-8.438363688923253671e-04
-4.461549374720987947e-04
8.039971486635131203e-04
7.985943935373536831e-05
6.151525656103400260e-04
7.421717368737068207e-04
3.678016377898208592e-05
3.129908563020165142e-04
4.974295106894528274e-04
2.067282743635709012e-05
6.370769120471503788e-05
1.205953329386603122e-03
8.427774313943591031e-04
8.748540371774246550e-04
1.325439098482352569e-03
9.045002066019049939e-04
1.084337530526538387e-03
6.654031427999068399e-04
4.411958970043746071e-04
1.843366146700577156e-08
9.483911594287446544e-04
8.404289243544953419e-04
-1.802299458151720979e-04
1.059704369687927260e-03
2.542712935300834643e-04
-5.305658962380425340e-04
1.037984063947761408e-03
7.934290661766565304e-05
-9.249937494021759875e-04
2.024466072979697745e-03
1.171468675395355256e-03
4.425289643232743655e-04
2.509344332942837520e-03
1.633654399289739302e-03
1.087080871665755885e-03
4.084398457806857896e-03
3.234662016721458113e-03
2.829468900947509219e-03
4.404736403113559268e-03
3.589079978822801251e-03
3.252461703667784091e-03
2.111010602788146191e-03
1.209604430916870086e-03
9.394019047435770136e-04
1.461237337065636466e-03
4.974712538275045687e-04
1.379786251045681780e-04
2.104875422680598830e-03
1.102458990098397320e-03
7.874998854322702449e-04
2.581958556517468042e-03
1.566270483629091234e-03
1.416424441287111131e-03
3.432595154867188608e-03
2.421115578956382561e-03
2.529673020535929372e-03
2.402944144790619338e-03
1.393125159783883873e-03
1.753839446852531415e-03
1.005728499091776374e-03
2.447216030186145111e-05
7.647671507782014119e-04
-7.895512283850991794e-05
-9.314768638761649223e-04
-1.144500222675867175e-04
9.289576891359349522e-04
2.239389038151818451e-04
3.132278356958189845e-04
2.057265900609096809e-03
1.367585034680587550e-03
1.391305961259224795e-03
2.179571872209225790e-03
1.534849991861306434e-03
1.824566201608838686e-03
3.089760623623984473e-03
2.405152879496033538e-03
2.949383644702487876e-03
3.229915736126869833e-03
2.562493339396065828e-03
3.506977914100214457e-03
3.233675677275773749e-03
2.648680059312352817e-03
3.632106473073729459e-03
3.236900423572663509e-03
2.784562151732155027e-03
3.893038182807619443e-03
2.364015337980045987e-03
1.897101570851521648e-03
3.145377207947189398e-03
1.860565843489729891e-03
1.597921640325251132e-03
2.718190513848262220e-03
-3.036692740505751568e-04
-4.827002696691921110e-04
1.154318288353850010e-03
-1.477370511863330136e-03
-1.594410601547621058e-03
-1.763907574717800528e-04
-3.995580168269835444e-04
-5.563823079002267044e-04
5.683594454791055873e-04
-1.149404002019146923e-03
-1.288626044333663874e-03
-3.444952932934548041e-05
6.117042112740518796e-04
5.106010670102271868e-04
1.848190402514152640e-03
6.646850018077903911e-04
8.491553939547910818e-04
2.026248693431920416e-03
8.512699829871926043e-04
1.158740822548227564e-03
2.285314046800104686e-03
1.516412961712615979e-03
1.856444347070932603e-03
2.731347311289493603e-03
1.843202504872101756e-03
2.244000129053980511e-03
2.700088731327630193e-03
1.025064159274132955e-03
1.553847130852734158e-03
7.089259459528393951e-04
1.068499299308272059e-03
1.684302427585077739e-03
-3.103956865560201909e-04
9.471076382798438928e-04
1.280531471162092965e-03
-7.431744017263898754e-04
1.456173429912469616e-03
1.834782527833289092e-03
-1.937886772837981320e-04
1.390243376679944388e-03
1.997912995625681851e-03
-1.141907490760264433e-04
7.044393213488873420e-04
1.386823437417928837e-03
-6.023974568469596348e-04
-9.378784904819448352e-04
-3.330028562252804495e-04
-2.112354510450669895e-03
-2.634153819491372520e-03
-2.037800097589247215e-03
-3.457951082433687821e-03
-3.116055229956221986e-03
-2.474847845284685200e-03
-3.652477927760457762e-03
-3.052770018173984242e-03
-2.513291457389027223e-03
-3.370159306927219059e-03
-2.707493096882571029e-03
-2.235369997211689597e-03
-3.159829793605108995e-03
-2.271642932852905097e-03
-2.001557262446915925e-03
-2.836239658008655757e-03
-3.217718614215485384e-03
-2.897805266400782336e-03
-3.744324618150015813e-03
-3.483859934810899870e-03
-2.930659683639464438e-03
-3.960520101296783821e-03
-3.418997965716316385e-03
-2.789260003119139499e-03
-3.899982808178061987e-03
-2.910391675465736315e-03
-2.402763026471547644e-03
-3.536549404453280705e-03
-1.933053928183856062e-03
-1.703636982978056500e-03
-2.911236196675900164e-03
-1.109079122101696169e-03
-1.258365034842457916e-03
-2.531151423311891330e-03
-4.038572728569986389e-04
-9.179601577695396201e-04
-2.297182322684037520e-03
6.176254094627687142e-04
1.361512840254204836e-05
-1.414698720085259690e-03
9.304534439348377062e-04
5.747525441940486450e-04
-8.592986470665561370e-04
-1.258792486669508734e-04
-3.804742636336608578e-04
-1.713356589034803002e-03
-4.585563527111471190e-05
-3.313789343591456212e-04
-1.476482433781022702e-03
-6.127471392344480475e-04
-8.878623406485124407e-04
-2.042785454278054063e-03
-7.903603344664868842e-04
-1.083741008937827086e-03
-2.593700413013714807e-03
-2.732262226812049127e-04
-6.960120187502422204e-04
-2.552191900438232318e-03
9.285382191896703399e-04
4.311973201075568608e-04
-1.271909885926689535e-03
1.108502342505397666e-03
5.370567078279609059e-04
-1.090491543208991316e-03
1.151830772444446035e-03
6.620690798083763177e-04
-6.911203485371830929e-04
1.844877610694256641e-03
1.409116478823063852e-03
3.563691231930715236e-05
2.173761591861941150e-03
1.805365757343077538e-03
4.693887842718795348e-04
1.903245071027649497e-03
1.547726270702521733e-03
6.367468515352454114e-04
2.747535108760771391e-03
2.087050167574519815e-03
1.839979011711484480e-03
2.152454178627262547e-03
1.424446334167063597e-03
1.501120907991913530e-03
1.834664909645229757e-03
1.270558581074917107e-03
1.505611183751193096e-03
-5.631013683669500495e-05
-4.172774096969188834e-04
-9.533211213027491520e-05
-1.611598944322763542e-03
-1.512555662587890216e-03
-4.970962748305748956e-04
-2.004778694401256143e-03
-1.625597677703380720e-03
4.014511640627959032e-05
-3.978454191862447129e-03
-3.472944783522389708e-03
-9.697468749251633062e-04
-5.195607892573245873e-03
-4.389696439625677231e-03
-1.855927858559769991e-03
-4.497042021408464985e-03
-3.535280978719598007e-03
-1.355329052600397731e-03
-3.737413139650113715e-03
-2.694500069915953516e-03
-7.288738128950277657e-04
-3.924073125877699034e-03
-2.645344550404448575e-03
-9.000358973589167588e-04
-3.736978800909450046e-03
-2.227979835241790819e-03
-4.792098769502391772e-04
-3.024944704137434888e-03
-1.485813678363290995e-03
4.090331888939560310e-04
-3.840935086919599738e-03
-2.294746419539953411e-03
-1.088480822738866090e-05
-4.998653195681945945e-03
-3.432070607383269287e-03
-5.036138675879050326e-04
-5.135244550564851268e-03
-3.427163490239940220e-03
-2.722732563698973844e-04
-5.392073070048138995e-03
-3.826068464730143000e-03
-8.315174037113869532e-04
-5.122661589356841683e-03
-3.722180592090401727e-03
-8.795333750976259708e-04
-4.927675568009857315e-03
-3.466698148268646754e-03
-7.419297436425076027e-04
-5.517811786892440166e-03
-4.044874193543861879e-03
-1.433844684695046627e-03
-6.102544944090904956e-03
-4.619055985802120005e-03
-2.079176505240431811e-03
-6.298221103281459454e-03
-4.866192985474250034e-03
-2.136857521872605713e-03
-5.217717850534093864e-03
-3.817859401719461351e-03
-9.918752760826165388e-04
-4.716281742932581893e-03
-3.356761328030818427e-03
-5.416141673649004168e-04
-4.353935655989267864e-03
-2.994695553422110131e-03
1.728575236256711857e-05
-7.999069978812307392e-04
-1.048085318194590500e-03
-1.158316365762460196e-03
-4.607611288531743483e-04
-7.572688036362786859e-04
-1.090717127669083150e-03
-6.835745233725242995e-04
-1.064631149749963642e-03
-8.268516446654802614e-04
1.344216747073245354e-04
-3.986485901843997599e-04
4.460638954318308979e-05
1.312788468768012751e-03
5.808555501498100610e-04
1.038925303042821961e-03
1.444136825573044984e-03
8.583602354863219177e-04
1.052095856961067282e-03
9.481171010451633959e-04
4.650237475386038359e-04
3.933743336074608751e-04
1.254718200820031547e-03
8.909368173994783400e-04
6.702918278903805416e-04
7.463393915187131180e-04
3.389702574156205190e-04
1.469168205538085763e-04
1.303231005330631950e-03
1.099138776927772922e-03
3.050087427971476337e-04
9.699363516737082936e-04
6.782212385365691968e-04
-6.850891807160174810e-05
8.520135254666047877e-04
1.067930693692097365e-04
-6.326978852473233526e-04
6.502518023401545125e-04
-2.162216675200861918e-04
-1.183336063690875167e-03
7.910450488163266181e-04
-4.314063822994705188e-05
-7.075786464397230881e-04
1.737401891270337010e-03
9.186992030993169130e-04
5.740793866268521870e-04
3.042268049762244120e-03
2.134627191135097819e-03
2.266760944223281202e-03
3.659687583151125488e-03
2.759100184274125046e-03
2.847129457542438291e-03
2.576721544542360555e-03
1.639859099376436572e-03
1.535780934270045703e-03
2.120251254244258105e-03
1.069140556167040264e-03
9.847016688546983421e-04
1.930652258221820594e-03
8.899639303059307237e-04
8.778788032403375382e-04
2.156440716492485921e-03
1.100734071462330758e-03
1.201160545233580885e-03
3.064210691044985495e-03
2.090566160445562517e-03
2.634172180649959130e-03
2.647566704250455330e-03
1.774596255242000308e-03
2.844546684382635079e-03
2.283096488864558293e-03
1.326229269867091080e-03
2.422468404336816303e-03
9.538331265278682204e-04
-5.202072034137250205e-05
8.504658320751368834e-04
1.929255985096732431e-03
9.858098812929273411e-04
1.157909871474551529e-03
4.018691555925044297e-03
3.409951480146136867e-03
3.198778943128123119e-03
2.980622717136555914e-03
2.340145830511030246e-03
2.557002290713849754e-03
2.762860814950350921e-03
2.049871112035093427e-03
2.766145187808427466e-03
4.386761816380694255e-03
3.689003721818842705e-03
4.752487757755331256e-03
4.616116665019954005e-03
3.966401660798740854e-03
5.002575932142072287e-03
3.733130525894274611e-03
3.199362544214876154e-03
4.279460271151262589e-03
3.268280550686393331e-03
2.732268039531163435e-03
3.861014103852485491e-03
3.160743806210675622e-03
2.748845078045286574e-03
3.963098241801950826e-03
1.801130683766543781e-03
1.460316030118899910e-03
3.042460048195113134e-03
2.099391001521335451e-04
8.187863732039135775e-05
1.505793358885302398e-03
5.214747375419933684e-04
3.763716897485147790e-04
1.565655688698186802e-03
2.513238470803150367e-04
1.447875790610542418e-04
1.264034011692432647e-03
1.391530171477345108e-03
1.404307802504708340e-03
2.570755654701085968e-03
4.286786626296080756e-04
6.104893854601996499e-04
1.634504399908801985e-03
-1.215265828525880160e-03
-8.936458416924058634e-04
-5.256902981194377087e-05
-2.169563004016403587e-04
5.993701056165568169e-05
8.325751253730533053e-04
1.323482841654406283e-03
1.647381208483064859e-03
2.221546414090978111e-03
1.651908204201355803e-03
1.872207886716422374e-03
2.022635128494179330e-03
2.456313742183265265e-03
2.654001463233139364e-03
2.173894515409260410e-03
1.488393987745884181e-03
1.807578441125130353e-03
5.069528798853428298e-04
1.321659362864399320e-03
1.782765970979154459e-03
2.721781657207192504e-06
8.353112333908974682e-04
1.664025465386875704e-03
-4.086043682866268012e-04
3.774201010190806889e-04
1.204178393704123965e-03
-7.856773846677003953e-04
-5.616603195482439441e-04
1.603380636172205091e-05
-1.464900266841730452e-03
-2.324936476960839851e-03
-1.721921356688136230e-03
-3.118886963590960029e-03
-3.900600366228939696e-03
-3.300710991160246428e-03
-4.454781787867640591e-03
-4.029832931124818426e-03
-3.456821812213165760e-03
-4.393730370373349382e-03
-3.042670973017005866e-03
-2.582456148547425997e-03
-3.531721216469536993e-03
-1.946384916308547272e-03
-1.528824152480351721e-03
-2.375884818930704048e-03
-2.650865745394605059e-03
-2.245738391640896524e-03
-3.282658507183003858e-03
-1.871531767094478061e-03
-1.325299216970444050e-03
-2.409448215809445199e-03
-1.147171076667355405e-03
-4.992726037662137146e-04
-1.678767148212077223e-03
-1.405279415345805005e-03
-8.942103115672673120e-04
-2.019931620816336256e-03
-1.215614728969860447e-03
-9.561110491753899371e-04
-2.131540319195009744e-03
-4.496584261822675604e-04
-5.178568077708424261e-04
-1.835987720878621198e-03
5.858171038748252778e-04
2.264516636953034046e-04
-1.332546005410081228e-03
1.472812956784601409e-03
1.091775451581017929e-03
-4.887274582912934763e-04
1.983437796085815545e-03
1.684521953613625370e-03
2.214400895737855845e-04
1.667714168602683076e-03
1.407073603964214582e-03
1.519667695983040179e-04
3.512902089761104295e-04
1.057473874527566890e-04
-1.064376090927633602e-03
-5.881938180238894956e-04
-8.129451212548398581e-04
-2.055710329579270648e-03
-2.244522531141800723e-04
-4.548876899411158055e-04
-2.070594025106512609e-03
-4.681520833188659663e-04
-9.028994451927516715e-04
-2.730394973204748697e-03
1.156972967757010631e-03
5.974797228241082291e-04
-1.141413560042414330e-03
1.691595284125318706e-03
1.138436096851475456e-03
-7.117448633975507685e-04
2.314859130401853218e-03
1.820959723105057418e-03
2.001894670405854630e-04
1.468069655765538240e-03
1.124640522857210103e-03
-1.819630950414407471e-04
4.036878046645529382e-04
2.899880270206063224e-04
-6.483642724433214986e-04
1.528162889501994423e-03
1.462064797771066120e-03
1.053736771871442192e-03
1.053576739131114248e-03
8.625778981305577773e-04
7.898431972430525454e-04
5.039969898180910336e-04
3.135138841112976998e-04
2.898806752286297466e-04
1.232099002850936889e-03
9.808814138785035882e-04
9.944881901432175465e-04
7.328676725290409226e-04
5.258249639326840379e-04
8.732292461258318438e-04
-1.743695279827326208e-03
-1.596419366289656772e-03
-4.327205057827061266e-04
-4.113411394275520196e-03
-3.698997870910312492e-03
-1.813336134528839485e-03
-5.400278649402384841e-03
-4.817496690742717469e-03
-2.426175098609682085e-03
-4.882470354265950642e-03
-3.928759989563814121e-03
-1.743537529735541538e-03
-4.957070554716219192e-03
-3.793624546582745859e-03
-1.868754681646801969e-03
-4.339969402610663503e-03
-3.210242420982343040e-03
-1.249553575329191007e-03
-4.134777563846447901e-03
-2.900989241217069407e-03
-9.023685236678213092e-04
-3.650972742183278101e-03
-2.240550537723431761e-03
-1.575734091530725376e-05
-3.486733836781467574e-03
-2.057215603313669247e-03
5.318433400960526081e-04
-4.671861260222892956e-03
-3.271637410858430160e-03
-2.521729873279437918e-04
-5.075514768909966667e-03
-3.495597002155488488e-03
-1.696340109959664757e-04
-4.690678753598242177e-03
-3.031531190658447433e-03
2.297090234049591019e-04
-4.623489146520379754e-03
-3.095535371367628009e-03
-1.622304312354966088e-04
-4.763945512077788491e-03
-3.235666457144702191e-03
-5.948543105278800147e-04
-4.939665507207410822e-03
-3.432611868796889374e-03
-9.095042350134245179e-04
-5.902252713612970991e-03
-4.407679807323085404e-03
-1.947986378071493675e-03
-6.329566872113383258e-03
-4.794762315315953191e-03
-2.264479621645300571e-03
-5.598773976679398412e-03
-4.163703165972637045e-03
-1.461410521369768765e-03
-5.080493004469241979e-03
-3.688942402779300106e-03
-8.275299638564299161e-04
-4.254845178209831595e-03
-2.911464004154921091e-03
-2.198421078188466109e-06
-4.094667695517082047e-03
-2.700436200998533424e-03
6.600267843796305824e-05
-1.145890649335309800e-03
